{"layers": [{"type": "Dense", "units": 128, "activation": "relu", "input_shape": 8, "weights": [[-0.40660999016097776, -0.10606016992540124, -0.3054031299469469, 0.2650607230965179, -0.21639220541738033, -0.006549524717138275, 0.0180590329650842, -0.4190517356892984], [0.4860925700123409, -0.18863479926683527, -0.39531246714648177, -0.24224596240020863, 0.09145050355757164, 0.3503654567054731, 0.21033391867762208, -0.486829751028463], [0.3610594990097766, -0.3165326136906023, 0.305395122472837, -0.5240749496183291, -0.4134072599632334, 0.059152081403966245, 0.1242198919524426, 0.30583946182490485], [0.24021477032221, 0.18687450894199045, -0.39043412208496336, 0.3921945137172144, 0.2703037791259241, -0.3148655313680146, 0.2471046931628521, -0.19497328810639497], [-0.20243042609278544, 0.060954114879161386, 0.4202200082747576, 0.06503512871255712, -0.3783246229644807, -0.21664323913800201, 0.17359209488121313, -0.3211166729638443], [-0.27915601323563893, 0.20772161463422453, -0.01748238641984523, 0.019678748704600933, -0.21463029908342654, 0.33109638010554804, -0.15458319826661968, -0.30407798577309914], [0.03914644099813891, 0.0350269576511414, -0.3650248796931565, 0.18312085447688553, 0.32081530930865, -0.4550879940419209, -0.2516905539453816, 0.14447341442749714], [0.033694684783476266, 0.34465026960667267, -0.440210075213238, 0.4870482085402612, 0.12427468992499215, -0.22260302581913666, 0.11539434530955438, -0.23371500614179053], [0.18630653487288368, -0.5576743340057398, -0.013721905818810816, 0.03697031351881557, 0.10824803450685427, 0.35618446173173096, 0.0007270554886310554, 0.30868465076115087], [-0.27890382213163023, 0.03642691916545247, 0.25824211434058647, 0.1029744709795599, 0.3865332837808302, 0.14767852181895916, 0.0750461142923407, 0.4339791453847242], [0.1686264504920586, 0.001770675725435887, 0.2866023279590654, -0.3640631403075692, -0.37140893411872117, -0.13590921088597288, -0.22369752508831678, 0.3409316928330537], [-0.15070912535102396, 0.3656822380372325, -0.19189576253489837, -0.2153532921295938, -0.038286992797438184, 0.20919369085892636, 0.3004090968584002, -0.3787494578891075], [0.030042368235860303, -0.014024120212466074, -0.1489933765578458, 0.00677876352603274, -0.12396519597410718, 0.11771974458009843, -0.27154807452846624, 0.1690721789732455], [-0.23658897414565366, -0.14616235911104347, -0.18705663036622702, -0.21842070180039927, -0.1623926918081842, 0.532134441023457, -0.28719832370088005, 0.5344215303798318], [0.10356947968757908, 0.5052020126223953, -0.3291876041882272, -0.05235500114806882, 0.4410357626434516, -0.17661355171701257, -0.3945489444785812, -0.07494663433354234], [-0.07228026370656132, 0.32737108777130847, 0.26118046761496255, 0.4001708462949199, 0.3684834248773192, 0.0951875683361397, 0.3253784017166451, 0.38778936205479736], [0.09225841068279038, -0.21134045198621235, -0.39211533949901445, -0.03441590521707837, 0.43754726051099835, -0.18943020150576248, 0.4185820270762262, -0.17083812509042273], [0.0901654026321533, -0.2646333390516609, 0.07786878663809112, -0.23709091827043194, -0.10607272206449668, -0.02784963745572487, -0.06978651320595879, 0.21801444979053505], [-0.2956650447481351, -0.19167788185210502, 0.3175780786867407, 0.533111496259587, 0.30943447843881544, -0.29108273981161187, 0.3022835101017848, -0.25436589704790963], [0.48931328888549785, -0.10785612762221594, 0.42215563300424563, -0.3629668399257435, 0.2492001706360085, -0.26194388348634384, -0.4364517498342878, 0.39425651288258606], [-0.04537339597418467, -0.2894795916438281, -0.1351790603202123, -0.1280707693328019, -0.07008040145987744, -0.021336561105531074, -0.5516648496198241, -0.4314008237343433], [-0.3727674313626291, -0.4589299903067229, 0.42207066850757535, 0.02131213601479497, -0.06714508055675551, 0.22158110687801635, 0.015405056263375929, 0.04545004058760322], [0.5288629279951426, -0.32314672371546793, -0.447270679541532, 0.04447243422182415, -0.2587377765661349, 0.6428974629560968, -0.39116830284727605, -0.5498715630283852], [-0.0927902463309304, 0.2453142055952395, -0.24365249776599332, 0.2610318085744046, 0.22707263010316955, -0.09938606827938957, 0.15760099799377766, -0.3047266267116842], [-0.05079248447321946, 0.17217949168587676, -0.40114305244569914, -0.19424089834106603, -0.047899232186255025, -0.014468925612394217, -0.3328514620766038, 0.1677444931370177], [0.22859891082553713, -0.46171450541302933, -0.362214610667845, -0.7283275781506897, -0.2993791001461101, 0.27024924062502625, -0.1323185848264602, 0.24234995824929742], [-0.22142184398869283, 0.1503541628102994, -0.16800477019809038, 0.3196146528565992, 0.16850756261886785, -0.2376188580289238, -0.34311379437571043, -0.06617916277672611], [-0.21903538848549237, 0.2392028154678417, 0.13739130073552078, -0.30319483892492066, -0.14643748805176815, 0.44721729126269627, 0.07513376070004928, 0.2050585025779813], [-0.2536574344928727, -0.05994672961560699, -0.6580169644899256, 0.039761163282988114, 0.14728128307577532, -0.14861832966280003, -0.4015994226048767, 0.08907122935853444], [-0.43373088133242627, -0.31490254805546586, -0.1045979510224183, -0.036113223567497243, 0.1143822164295907, -0.3842339108380829, -0.362064902877047, 0.37306520202314863], [0.05937239748398497, -0.10868638017278383, -0.4336193856191367, -0.22129143952909325, 0.03395163861048451, -0.2151282270211367, -0.060757103577610515, -0.4492209058695683], [-0.03519155770097872, 0.3888805535816886, -0.3525043647156975, 0.008322885600332865, -0.3404684381884666, -0.10503619006674884, -0.34909902984753266, 0.22689193078419403], [0.2080057194483754, 0.1874500385158816, -0.3998375702758997, 0.3114734306000588, 0.37421622425542506, 0.011016425856167114, 0.347344385371579, 0.2866125762635285], [0.24653407952073372, 0.09283789794799772, 0.6357414452243817, 0.5821630241856663, 0.09956901729677119, -0.669052390238115, -0.21809689829909704, -0.3093486635172784], [0.09677419843136911, 0.369383648627249, -0.21925622048097568, 0.19833050343638445, 0.18913754226371737, 0.43408755458605397, -0.46645976600113687, -0.033689282361998], [-0.5135021418575522, 0.09080975366342532, 0.45883132610987676, 0.19697863995722067, 0.11177956010724269, -0.269123574551115, -0.548543502342646, 0.029717001125385382], [-0.1295420756574175, 0.41665645537668766, -0.2799646310391883, -0.33091654104125207, 0.26084240612175286, -0.40940040637628666, -0.05652385124203889, 0.43636243417689946], [0.2720960553820945, 0.21236260306882568, -0.3818636337053029, -0.4921186643790134, 0.28277569426117133, -0.5047010327502433, -0.33768050538405636, 0.2867908548811795], [-0.027869129656704583, -0.26547453601400434, -0.05980017554254851, -0.28266340083797176, 0.27179841679131145, 0.2211651731006278, -0.03923119543152085, 0.43823082936648655], [0.32142447121351503, 0.19300335967528637, -0.46717683404914856, 0.22065886784577235, 0.17355874305463212, 0.3467852067306873, 0.06731591580316862, 0.2127109875428386], [-0.22714260499513686, 0.10444267265094256, -0.007551922171252828, -0.4427935914414555, 0.3578483137701366, -0.23748090221629128, 0.11871248977958701, -0.44555508474642824], [-0.45004145916701044, -0.15095242726887134, -0.2034565987950084, -0.15273776819388274, 0.3971285869081054, 0.3262748868338521, -0.2878928189707882, 0.0436158232474682], [-0.21778356203805205, 0.16128211180111687, 1.3363034530195697, 1.2372779161163767, -0.16281968042941264, 0.12709461869442407, -0.0649546851521957, 0.022866224003497], [0.5828076310142254, 0.37601044841879133, 0.03446725976210714, -0.030634329274254097, -0.35067010527537784, -0.19167490872658607, -0.15395343822025848, -0.4610254184395509], [0.23776752669415352, -0.21334164895648483, 0.9973762211326983, 0.21156592349467904, -0.40002426552379855, 0.1361738565855432, 0.31425366915538, 0.3279651182764517], [0.37991307265669183, -0.13266538058387212, 0.4013117864893117, 0.09677035479741254, 0.41028683236775987, -0.2704008069327401, -0.19453275629583153, 0.3342287496675646], [-0.1688519814137478, -0.1673823852683317, -0.3031931323726035, -0.2320002629771508, 0.0306142043787059, -0.37042355594653353, -0.5700626707656635, 0.4509359997895574], [0.003436412648968986, 0.340544961606511, -0.16435481799033874, -0.26656877821987734, -0.4705842346255161, 0.34196888825037736, -0.03450258712898507, -0.5006697512789255], [0.439500817805632, -0.17665186900578975, 0.13330722503690207, -0.15876949664580453, 0.39367240583735846, -0.29652811076603186, 0.6594012115172397, 0.12708939161249055], [-0.43406616943109777, 0.48958979680850234, -0.6070075831749181, -0.5641717562754262, -0.2533050788952544, 0.18190632279095942, -0.35436296118662425, -0.33302938357658435], [-0.40321321969164303, -0.20212635707913107, -0.2684515528435049, 0.6289899484461159, 0.13418569520833273, 0.5265661804907512, -0.0499546869956481, -0.14798096785349882], [0.2950720096773363, 0.1331929546326967, -1.1085919430626523, -1.440847773457377, 0.2915016877858807, 0.372464240472312, 0.25114189278454346, 0.31580838624752033], [-0.2371143348315112, -0.22359368983286979, -0.5463250750762132, -0.34290888391255303, 0.05138408524602379, 0.5047324348310952, -0.012470140828049835, 0.024146778759357057], [0.31533331277715265, 0.1368592909082694, -0.254404444562042, -0.16277947600922443, 0.12297482124469743, 0.1758694352883539, 0.3658980858337688, 0.3854178585715629], [-0.14411860705701232, -0.2641104592861185, -0.42143231535924547, 0.03434601247413323, -0.2054784016179533, 0.36301193100566614, 0.3484939188447986, 0.26353800759304674], [-0.012096457276771885, -0.0701761176359158, -0.4258007677782523, -0.532056246021014, 0.07303626219124783, 0.012708366347787369, -0.08712627827646097, 0.13930155582476667], [-0.2066483897360191, 0.22414651913567485, 0.3731704038421355, 0.3060765260265616, -0.3704092705490096, -0.13544995388704656, -0.18802402198899107, -0.28100560574502687], [0.4290163081057251, 0.18124055733859387, -0.13145956156479835, 0.11543516921345064, 0.3273668441566226, -0.4946787015660161, -0.13589646035387465, -0.048184778009236505], [-0.133276285765063, 0.1422777019191757, 0.42938917825870315, -0.011308730483602671, 0.4186987813399383, -0.24969485222364715, -0.3019707934834461, -0.10635682148266762], [-0.20434000925154513, -0.1238658865328971, 0.05593888094601247, 0.5186598372031987, 0.10321842698016519, 0.48617893502216347, -0.22729181497562326, 0.21942088622538974], [0.1868258537369655, -0.07847574557757936, 0.3602548433503959, 0.6286467146649716, -0.45280864539505666, 0.10801341638763398, -0.2316250045609576, 0.5457199536585258], [-0.1644934441307481, -0.07665275529107739, -0.15469136130852204, -0.058429684639001736, 0.41032160601458695, -0.07202979663272385, 0.2218656587394701, 0.15834102960495003], [0.05249373572044462, -0.3619311367335853, -0.2581426848481045, -0.13653035263883093, 0.055417302447723506, -0.17788318005149487, 0.30142877087448133, 0.07565728507729781], [-0.204122013596985, 0.16065080376368895, 0.7543284744160527, -0.06831823698116732, -0.2698114881873798, -0.1253927598320169, -0.07906083941248236, -0.056859858414160656], [-0.5223420281205884, -0.4249865767848406, 0.7114399765922952, 0.20503738509702898, 0.02461678471492284, 0.3389973314366925, 0.3387660619902672, 0.30295858133534453], [0.36380166895539656, 0.39463490091402115, 0.08250276321901737, -0.181810939176916, -0.058096747402463164, 0.2658479664043993, -0.41058263203678286, 0.27852913381072625], [-0.15138191254640884, 0.22845162402197916, -0.41059066691818846, 0.0939590207994146, -0.23868297949908168, -0.27109830115769823, 0.5106386796092166, -0.3126535995936964], [-0.5207221363677366, -0.38758536984528213, -0.03669650693218104, 0.308347512918056, 0.5234579558900236, -0.18835079912035577, 0.48618544391130736, 0.187352237366181], [-0.04450997836623997, -0.25140345768610467, 0.0018866549803426501, 0.479036766019746, -0.07108215020424061, 0.14971718411984714, 0.002703423377767222, 0.12695957065620134], [-0.25652521390697164, -0.18009394398753906, -0.017905697396812005, -0.13741011268041278, -0.18739739625086785, -0.37591948036996803, -0.34221522734551657, 0.23116367559207238], [-0.09759267243932576, 0.4252641298310104, -0.40599953353252904, -0.2460119609082922, -0.3252240470536134, -0.41687884518066576, 0.42168077654601227, 0.23220390563285062], [-0.3183174205382753, 0.14361113614879667, 0.17821381953988966, 0.4351919817826782, -0.4563062366450887, -0.4356433843992188, 0.4362293957307939, 0.06714081561787241], [-0.10151469587038782, -0.00359888211692236, 0.2531866713887505, -0.35481823257971706, -0.39608289640962885, -0.3817050744500497, -0.3979237073813511, -0.2690223192773838], [-0.3476355615618316, 0.2957547470616892, -0.3948694898877982, 0.03779228153995446, -0.21380795806328434, 0.5206511396325146, -0.16043699285969154, -0.07214229959535741], [-0.3694946000032658, -0.1337455767703232, 0.14353084276037242, -0.2245325501590276, -0.3247674481593704, 0.3109173277482909, 0.5449941991765135, 0.11309505764013605], [-0.15282057517979325, -0.12795650392667077, -0.1581856950782081, -0.14602198203973057, -0.4283597140950324, 0.37461530575453467, -0.41848292131714543, 0.2173639772599583], [-0.10637390015146722, 0.37114275111611805, -0.04594147010959475, -0.07180846849811306, -0.19097364383088442, -0.20046226310231233, -0.17770398702309234, 0.5452998009764237], [0.19300584467689616, -0.024443535062492666, -0.24478215122635538, 0.14552356560208476, 0.4047970598465209, -0.2780040036324334, -0.19086423859240598, -0.4300318159154163], [0.041911494472460384, 0.12976833500550888, 0.08853420038346675, -0.4327524965307546, 0.07010533518849012, -0.10213164582954143, -0.11256490109944399, -0.11320544656837148], [-0.19860952226615003, -0.025492371523736203, 0.3605935850113209, 0.7393829145759109, 0.34324873604184974, -0.4494408309175734, -0.4494414119358461, -0.36263663752759534], [-0.1607957462613933, -0.30997210682071613, 0.6441307956986987, 0.8212847976640554, 0.1527372345700224, -0.20946855793286803, -0.10034665736720363, -0.3576106468442508], [0.2855821327297695, 0.2505457002704763, -0.3331957130911351, -0.42398434005509794, -0.44415615692064, 0.12785783694812586, 0.16897007779787718, -0.008539733030977194], [-0.15942947456273693, -0.30957049784156043, 0.16022525379185207, -0.1210791446124989, -0.4487262753800196, -0.23046306036017922, -0.35641735073770153, -0.2187591508379527], [0.27812333291172925, -0.16110023184398567, -0.27646814990565627, -0.43081565182415354, 0.18217385498970592, 0.36134096276395616, 0.1413056584218924, -0.07337621451991538], [0.07941544774138026, 0.3524052151962068, -0.5070098565499649, 0.09211166204864239, -0.32288310888810545, -0.12129783330693589, -0.16448609870733547, 0.45567494259630975], [0.10263717212814424, 0.20200909203205777, -0.17386785696278165, -0.25819190858536123, 0.2858489650014861, -0.004907611987341891, -0.350280083467392, 0.39357197686848294], [0.3413484093879226, 0.2399704447728116, -0.05440605754325442, -0.12791491475854797, 0.29952098209217615, 0.7567145454392112, 0.3894541006634991, -0.10205644065523341], [0.4688808999891601, -0.12039349553917814, -0.26411252689685166, -0.23760548421339808, 0.3024200131117489, 0.35050510245138866, -0.02706178465030898, 0.46683126641911205], [-0.38633223508412984, -0.19661622400879594, 0.1847652771694726, 0.061896466228547276, -0.20652824237942033, -0.28588018091915474, 0.03709716824099057, 0.10843381190682917], [-0.15858114993538763, 0.18383170521415307, -0.5173341280162034, 0.14918183197422194, 0.35960541648773214, -0.40855899621151937, 0.08633138217818011, 0.21965451672414973], [0.2943618645932931, -0.2561678198172448, -0.40278711129508693, -0.5012427392877339, 0.019410254208630254, -0.5873788610816568, -0.2476334797956687, -0.4918997740079027], [0.01695179001002178, 0.3475696259567315, 0.5257173642103629, 0.20286778862447055, -0.02093008958739156, 0.3419980290364037, 0.5191799096913599, 0.15308469320669693], [-0.27736823756003204, -0.39940167608409766, 0.2821122140507543, 0.397795340900202, -0.0457197886466771, -0.33432646138387473, 0.5208751713114864, 0.5030373694774268], [0.34067934356946433, -0.10429733001181327, -0.18311144322549372, -0.32492715477162903, 0.1367537238705161, -0.27691092926989136, -0.5326613033592132, 0.4661301315238663], [-0.10549351614955416, 0.2561478666942435, -0.05731938421280711, -0.27109622475646783, -0.36789307162326235, -0.16175126579387936, 0.4001450198974221, 0.5074875432320818], [0.020918591314592443, -0.02355299543414102, -0.4920728704261171, -0.11420961006575317, 0.3812791902753665, 0.424406822028534, -0.11379757861936728, 0.22097965791174395], [-0.3593115593943679, 0.2682476305274439, 0.05398911342318162, -0.020946059420053658, 0.2400471061450029, 0.034341065077229754, -0.26215507201974264, 0.020416800419206307], [0.19115046727998447, -0.1126483679025531, 0.8174477010970772, 0.37178638859908175, -0.10835339477984741, 0.2359525041223884, 0.16599324205594704, -0.10594417268854421], [0.3431882047080707, 0.5233950268080778, 0.9364408112935458, 0.3119312231751729, -0.28719433255402665, -0.1024477858810413, 0.3588762391864757, -0.44260418814263536], [0.04508038700228025, -0.1814752462466963, -0.3755549042221607, -0.21150439826246922, 0.31718094261711427, -0.21917344948890952, 0.4772944918467433, -0.612368447104184], [0.14303634333692278, -0.0794580505507279, 0.02662145777200064, -0.48665915862372444, 0.26955791007533886, 0.606237338991956, -0.11162905021442253, 0.45091015850967625], [0.11004602978186752, -0.21712354013586851, 0.34439456694551246, -0.5887003416421451, 0.24651652419511172, -0.5087079834312684, -0.1854948387374662, 0.23588127169823805], [-0.024520583736630817, -0.07113299494343102, -0.40036976773211946, 0.3200884470576731, 0.34592215768831885, -0.05496308412256969, -0.37302077528834765, -0.40988955783851877], [0.47569169530724775, -0.08435229955179008, -0.25426573722268814, -0.28300544895623997, -0.026568886832905782, 0.15723500918876032, -0.1849491902527915, 0.40131922498058187], [0.2958165393393079, -0.052673079227085556, 0.10631350993605869, 0.11596480522580148, -0.0499985451814105, -0.022480129139214836, 0.35373922930393426, -0.2670213382981799], [0.30273085776658554, 0.17337938680581494, -0.780396339220735, -0.6390986323151484, 0.4533151169717816, -0.4841107701985011, -0.3360720144665967, -0.056016262104074406], [-0.14857122231395112, -0.24214446250367339, 0.18013135261186577, -0.3530933545886704, 0.21578028917498274, -0.056816050122720424, -0.4446192631008037, 0.03282680625193331], [-0.2941733214154777, 0.09857885369115654, -0.17864895790383134, -0.31191247915729764, -0.03506761010692409, 0.49525509308959975, -0.09762394010506165, -0.3317754695668771], [0.027892823747016113, 0.41657071891163977, -0.6451250417584354, 0.07880543971826048, -0.006036798789443127, -0.11200762476696585, 0.020321984289637128, 0.4687779355476818], [0.02620716946469277, -0.39663496547547034, -0.31959140133016406, 0.13151954858722775, -0.3664245471546801, -0.10846976169230935, -0.02166138496593065, -0.07550943555551445], [0.294808424820903, -0.08168033966973333, 0.4580422919372367, 0.28649780224780413, -0.13009781908395288, -0.3211396355759121, -0.4173360841709279, -0.1263918244468011], [0.40978889820433234, -0.251326782119993, 0.8287323707837705, 0.5648268313954402, 0.21054901922923, -0.17887517612467027, 0.2608711532241454, 0.011964845314377191], [0.30221921877439323, 0.09547557374527425, -0.18313133405305132, 0.13921232808726747, -0.3200991004154095, -0.27366572141663487, -0.3877422713466493, 0.18586519251454708], [-0.01380791310803401, 0.36860039773740455, 0.25967267837807945, 0.08252001947290295, 0.4724679737980987, -0.05571642164477429, -0.1608575163270016, 0.3641051936628568], [-0.05141897991675231, 0.1222377347492204, -0.17573890094351732, 0.1546499827986555, -0.300297869706245, 0.08924628948671842, 0.05296090439331361, 0.1680024684728768], [-0.14706617765121802, -0.027631023253391732, -0.22361199650320182, 0.4087174530583751, 0.2336508454833324, -0.08018098961130557, 0.16275071956278428, -0.20338389759930686], [0.05184289550846834, -0.28620353718046665, 0.20697138520382596, 0.3057437354090727, 0.3045130609245844, -0.04225977329563418, -0.4764979393951448, -0.43056759574954223], [0.32505129568964003, -0.17293252584917854, -0.5004422656565743, -0.7609551980720447, -0.4207024667946628, 0.5391923277285406, 0.33831077782673513, 0.4785008629682478], [0.3013625206533768, -0.4217116709458065, -0.22400015102537593, -1.0726345220531068, 0.0921722089916871, -0.18480522746925185, -0.3837776792697596, -0.09747268217036836], [0.23252245016040213, -0.0601096954907452, 0.5236220914661173, 0.02541718728178406, -0.33271726516636435, -0.08305141889957145, -0.004668430784401487, 0.4997423947202363], [-0.16989216149904432, 0.5893855435822737, 0.30227719351636134, -0.04065038125279795, 0.2784553575108066, -0.17170268456195223, -0.35563349630014457, -0.0013225262848418832], [0.39169570007297877, 0.1203113407148049, -0.11075143588820842, -0.1097830997970664, 0.2670099714123407, -0.09733767739403995, 0.09662645743725827, 0.3250439911119163], [0.3953927201758132, -0.37662387530432057, 0.3019442605381325, -0.6001190124820861, 0.0802417487232969, -0.18336782629467585, 0.2670293192625888, -0.2254926821029501], [0.28765769949784686, 0.05504835188507793, -0.32361373321969633, -0.370506449091183, -0.44495621017509374, -0.5235754072556085, -0.06834991367561685, -0.2667018581421224], [-0.40558033568670554, 0.04643659880601535, -0.209462105945471, -0.29603634595835027, -0.1852849724260114, 0.17829375920625404, -0.3898593374338837, 0.4021374187371998], [0.1340163402059617, -0.19250035622420217, -0.3001374065998787, -0.22214210296563824, 0.01161624499428254, 0.1167982938460071, -0.33120838327815455, 0.17495682195611817], [-0.19756199177830921, -8.673037436356827e-05, 0.19594551905229937, -0.24537423253247415, 0.1688127265432192, 0.23856060333597456, -0.03864066291814636, -0.3133024312104439], [-0.04197575426865925, 0.18734080208856363, -0.3876354976210437, 0.30789971678022515, 0.08031393591364379, -0.1754566324712522, -0.17105838860658962, -0.11730052820669594]], "biases": [[-0.3872490175327748], [0.42576505553002], [0.4561929688124454], [0.5256442507650243], [0.11229649776649013], [0.34804555395798814], [0.012988863226807198], [0.06265133782244736], [-0.1853306356966591], [-0.4535315468042646], [0.2874137095468838], [-0.10713550025924336], [-0.30922625862115055], [-0.34173876659939145], [-0.2670218464130088], [-0.13602690325631808], [-0.4200923194626835], [-0.27392419515217425], [-0.16968234605573973], [-0.12990537037809116], [-0.4590572524856169], [0.20079622077484655], [-0.08563355032009341], [0.25410870325305746], [0.3266183244615206], [-0.2543920745425891], [0.6188020894055367], [0.27010062441243027], [0.45017544756090005], [0.05949828370833171], [0.5619600109792396], [0.2318720324796678], [-0.2936205674320213], [0.12188149819071806], [0.10361629584498479], [0.1251484778049471], [-0.499706039280264], [0.26162484125742147], [0.12823960584147365], [-0.013080241895874516], [0.004153105507987431], [0.18667933628731995], [0.18741381264581797], [0.10357499138708041], [-0.5179442694211016], [-0.26456363942885464], [0.3684869678677389], [0.027410267483004395], [0.23078706206377322], [0.23197211664276585], [0.03893492924374554], [-0.45651419474414123], [0.6620697226197102], [-0.23434254086912615], [-0.5366160625428614], [0.2577635415729864], [0.2790191822522884], [0.3815532425218454], [-0.044381569927781424], [0.16650735414003628], [-0.4167787328311743], [0.41580416623555916], [0.2896522649752161], [0.4048724959180647], [-0.4246889025770821], [-0.04022026691987399], [0.16282634664769613], [-0.4124089013862355], [-0.13878298145248308], [-0.14052763854473724], [0.4201922461473574], [-0.06781040792134231], [-0.10216851449272747], [-0.06242802369892452], [0.37650907433600356], [0.1835582203399648], [0.2925219133849208], [0.04950429156908529], [-0.3996100502895109], [0.40530533664823365], [0.03723383921129726], [0.5103656100227829], [0.032325495718512835], [-0.36192689661009236], [-0.18815774921234776], [-0.4306982048953531], [0.5290561829241228], [-0.07291593069125363], [-0.3933942803594219], [0.1994741790878414], [0.3722078143410786], [0.4142342550923361], [-0.4529396750112719], [-0.007918402622705191], [0.17545137500235403], [-0.36313546077315656], [0.2603863125248392], [-0.2240369100203317], [-0.35902321305892965], [-0.18816662613255544], [0.31419251719377567], [-0.3391935480681459], [-0.34911331161485615], [0.09271460069329968], [-0.4511773619796211], [0.21395433699834646], [0.17727104335743224], [-0.3409103715327268], [-0.33904428222308786], [0.25409903278022283], [-0.1902034250903943], [-0.37585308020817276], [-0.1823324615941807], [-0.1979383162830007], [-0.3646308449162494], [-0.23531509953633198], [0.4830775869188656], [-0.27415831118562867], [-0.299668620863783], [-0.4374752854418689], [-0.3154618922505974], [-0.35168950896507495], [0.3656764973431877], [0.15432372649204287], [-0.4466137708935143], [0.49241634313436605], [-0.2854661214176568], [0.370467638124227]]}, {"type": "Dense", "units": 64, "activation": "relu", "input_shape": 128, "weights": [[0.10519181587948968, -0.3233145866561428, -0.06361928265601242, -0.44608020079309263, -0.33810804267452205, -0.315279934078727, 0.016085250704349994, -0.33558198714353027, 0.1469366532709992, 0.1006453058044673, 0.23323013508346377, -0.29029037686010817, -0.24345240095067439, 0.4642259504932089, 0.2916661806433399, -0.42272421617756534, 0.1273970543538141, -0.1091619506216071, 0.12203267581275606, 0.1898738743462477, 0.4757585150956023, -0.522329426303958, -0.29740513032370863, -0.20399386454097054, 0.4075023993508616, 0.4584749052910124, 0.3678740141231921, -0.06553492198936617, 0.342399174486721, 0.19945151285678114, -0.3464467746139644, 0.30022398626678654, -0.15983358161208724, -0.4388094152242468, -0.21596593165908753, 0.3899004394225207, -0.3197660666719922, -0.42049383909832394, -0.30805041681417683, 0.058455018196522955, 0.3942500781938401, 0.07312622343355407, -0.19403315275745325, -0.1861234385104512, -0.27975329834974944, -0.469671579350154, -0.13726184878962377, -0.274828098707075, 0.1810102676042588, -0.37865445519689345, -0.3418092048978441, 0.11626655950445687, -0.2993555918992803, 0.2738926008879958, 0.35417314233047104, -0.4858834166676382, -0.055890908139188254, 0.4060121708163451, 0.41482987336529714, 0.44434490545487965, 0.2847065419395524, -0.1941736957590348, -0.1017699689592333, 0.14801101408209796, 0.41650843142670485, 0.246550567362684, 0.38984549858476103, 0.3174264645605873, -0.08266267101750548, 0.38015700797333674, -0.29664727416865844, -0.17124492655808965, 0.31825157502196166, -0.04865465244261932, -0.3652686057036218, 0.40194838332521016, 0.32108557603663734, -0.06733882782915619, 0.3728692442445998, -0.033535444818454864, -0.0024490793823370226, -0.22865307377186406, -0.2340434022513058, -0.4967934269354306, 0.039732760650121206, -0.13876723888892006, -0.1873747860538606, 0.40287176081069176, 0.3347416779130153, 0.093072450037851, 0.01895130754074454, -0.04663732581102714, 0.27619670631973336, -0.020741364170332857, 0.4516441003909031, 0.4699955023412319, -0.18499282262081562, 0.10061848969884234, -0.46297568770005837, 0.39027811817940095, 0.3044205854486653, -0.4506089705308913, 0.3612562679443594, 0.2901039078091398, -0.09438436919408928, -0.38474201792816276, -0.18721890636357383, 0.13674455413944497, 0.10340004911503002, -0.48512690012605536, -0.1026982320188402, -0.10709395441803349, 0.13146899422831435, -0.3134956821748973, 0.06691440701328166, -0.21528481925043882, -0.27042664328137334, -0.4576978024170936, 0.351897796276852, 0.049094117852023805, 0.16329139830815964, -0.4540103472110154, 0.4281106278226214, -0.4555946566292132, -0.06094355970215849, 0.14429706240080534, 0.35314138922670046, -0.017743382672577027], [-0.16166097595347825, -0.45349662142518377, 0.10556405959308093, 0.12302100993774939, 0.08264989565439575, -0.1744711662355309, -0.1976199995086341, 0.1643083781232364, 0.26335358707082757, 0.2107404558292315, -0.4916043766891335, 0.4316909448480008, 0.1347937121477266, -0.4588281170620452, -0.43008067306311326, 0.20481587192557824, -0.2992372340792556, 0.2824453315266904, -0.24325729860733808, 0.17657294306179647, -0.4945300269632651, -0.049987109577026345, 0.0845032486152281, -0.4939538354109672, -0.02271536179563337, 0.06424628697056155, -0.3347618375339996, 0.3728568382536751, -0.08282500219246132, -0.19223443016536867, -0.27684829004468975, -0.4006352105599435, 0.0740687241467004, 0.38445945241791646, -0.16307377551945296, -0.12327617895630591, 0.22636269583634866, 0.2099417315760729, -0.10460928602386287, 0.28525674859939193, -0.4159280894384675, 0.4131326892957909, -0.05471286184938959, -0.030798095681225886, -0.23982919713775053, -0.20131876582837246, -0.2847306108465766, 0.14656787515857955, 0.0783401365967858, -0.08109727305606175, -0.5230117681321346, 0.41630155708112, -0.23778264875764377, 0.33327175194506004, 0.21202155767881076, -0.1780220772289805, -0.3710470247345301, -0.44280795213025004, 0.1910324508145211, -0.14451986427103325, -0.017061850502857374, -0.23325301071370147, -0.3138542775985599, 0.027702672341267925, -0.0030455125653762113, 0.11094504512941578, -0.14218132899117814, -0.41841482457235324, -0.09635949218944379, -0.35765306277201836, 0.3213880622818138, -0.30375978660996106, 0.05183808855019027, -0.3072186023853743, -0.093576231177949, -0.5479437912006822, -0.12393537669732846, 0.46104450860920965, -0.47949824498653365, -0.2604729097787699, 0.26301421847905826, 0.24668150847128056, -0.39305316632122483, -0.2833961072242123, 0.05335310399772545, 0.21697956083402065, -0.31957604057250816, 0.07732633447645951, -0.05193516369010217, -0.138734555665214, -0.35667029193231353, -0.42343980084975147, 0.46497414332124776, 0.19982078889540852, 0.2688183539581351, -0.4427273768849745, 0.030349184977362595, 0.21740939226999945, -0.3976520398988782, 0.35402610562703846, -0.05608899735006228, -0.4177541151951688, -0.4432218109171106, -0.09902894467660911, -0.24621386274242454, 0.41802290988461227, 0.29245605797465807, -0.38556472368502076, -0.2634108547406351, 0.12919907101638398, -0.06850122242998193, -0.30042159760724735, 0.35091786911164885, 0.07868681873807776, 0.04979927699364875, 0.1713497093129459, -0.06312563207580987, 0.09464437854985228, -0.3245835999961194, 0.1386727219479951, -0.0391619452744944, -0.30127421949058514, 0.261571945532621, -0.11501886463383026, 0.2419336918401818, 0.3916439366349689, -0.3347954782123504, 0.1159640379212019], [0.027178028618911117, 0.24031877317928824, 0.009017256370148004, -0.4135043067682891, 0.44440807105484864, -0.009347648892642684, 0.2882867570780966, -0.073548834280148, -0.007118577264011011, 0.21515419904493455, -0.4514400985957344, -0.3364538424409592, 0.1266829115679269, 0.3656316868873558, -0.0756411748425812, -0.5941459396634714, 0.013719940645011886, -0.11853137486333461, 0.0755868020460268, 0.029017007505502804, 0.18577363200157856, 0.2308963227778613, 0.2896921876530134, 0.3344405784250092, 0.19313827090256966, -0.02275383091053643, 0.21171627391982853, 0.34545237714930815, 0.2641711764543005, -0.12785054704658155, 0.14243529924913464, -0.37048965996793026, -0.3147245585183778, -0.4556485452415125, -0.4858903032432539, -0.6801781358759353, -0.2899770503580844, -0.31009463927445574, 0.3142011682998194, 0.3934153873657748, 0.31569309044361, -0.30013365575123924, -0.7140480276203576, -0.5319156511107873, -0.2757034415534633, -0.3711287843828551, 0.31041995638557557, -0.4939538649017726, 0.09505801799117473, 0.22901006694156772, 0.07630543103749476, 0.15448193089378623, 0.14751709856510278, -0.33447135551732526, 0.1813871828375459, 0.3055429876361295, -0.252746701358068, 0.028804010502277672, -0.20804597727168878, 0.1336002655000594, -0.3721640368195192, -0.5290501570616245, 0.14520066497698453, -0.4607565486260431, -0.5369699613010939, 0.39887000738670225, -0.4047243509380838, 0.22765133834861467, -0.5162710993832288, -0.11860008764108855, -0.5564223458797597, -0.3413752876312278, 0.0902068596873753, 0.2956371368520122, 0.17977836523368035, 0.2154801953025796, 0.32768814170657284, 0.2791481957167401, 0.41880552368801816, -0.4516892145034551, -0.48838371681521625, -0.43813156704975653, -0.4243489064233823, -0.20047719008127554, -0.11511933641485028, -0.21314228059354087, 0.25907845640144117, 0.2789268085108561, -0.3870121606225549, 0.05381887887539388, 0.21821559435702656, -0.6551481942055924, -0.1556712142915959, 0.2918132764522948, 0.2370981903438161, 0.0930648053482135, 0.16384060572557418, 0.08031726577012105, 0.2958686495173506, -0.1301559264265789, -0.3933991750325088, 0.2256556629272522, 0.35674377074364366, -0.1638678878160674, -0.2378339891473891, 0.12085041400689377, 0.14095506011694814, 0.2085782085058008, 0.16526859757832327, 0.22151114299717495, -0.14729352836325915, -0.23084961881338567, -0.24883304361913, 0.08412057587891217, -0.042111234326370574, -0.201102255627273, -0.5811342063401509, 0.33124472139194117, 0.1048742395942843, -0.26548454456002396, 0.2920285640194508, -0.12021285479385851, 0.0169210130196989, 0.3196827557734634, -0.09635648534916742, -0.15853515548322017, 0.2759732556336947, 0.4877342815254347], [-0.09903953412308687, -0.20695049820331896, 0.3044824915136672, -0.3558408738580569, -0.06601181702794798, 0.31064172941279805, -0.022388077640297533, -0.45372528238620896, 0.001853747453192855, -0.5458324077143009, -0.3330984341656663, 0.2565159216299799, 0.15355994496335823, -0.20299746116530146, 0.2670135175610303, 0.2940454562754303, 0.3421383430581013, 0.28530542506112977, 0.08640411130308778, 0.2820460054651589, -0.3876250537623812, -0.48859821951118987, 0.0282441105386945, -0.46930706958804863, 0.26700744709787233, 0.14233292321653213, 0.3849402134703007, -0.39090169413884185, -0.1475426286571303, 0.30957045766719316, 0.28943555872125515, -0.3353014176335457, 1.2982778696824321e-05, 0.07783784127941809, -0.02529752237905801, 0.34373608786858284, -0.3563794854687813, -0.03200792366897582, -0.3945047217989257, -0.34516078734540934, 0.20768920672931818, 0.05553436660792351, -0.6533238057998845, -0.14206417369073474, -0.2706793758326334, 0.10208382563021716, 0.5173728771443419, -0.17467918350309625, -0.2377820915228451, 0.3089856900043214, -0.03914239287000839, -0.3698549779938794, 0.3157963617879017, -0.47507888787704267, 0.035200755231063474, -0.3181567511623788, 0.26369145412016315, -0.173373136444495, -0.4988692898190222, 0.25934210850505357, 0.20108070949895213, -0.43341425327594363, 0.34341463131058003, -0.5141843195969411, 0.17936931291947236, -0.09762633583944053, 0.01213410772855621, -0.008845118507172742, -0.18889522601091882, 0.10798811623815066, -0.14034092050801708, -0.39302077481353614, -0.22842701961272477, 0.2922036705627182, 0.12947728025602348, -0.22943603013358133, -0.10826906166408694, -0.25373802903427833, 0.13356876396620934, -0.4380021599776581, 0.23385474867815656, 0.06208192392124452, -0.1674475008415825, -0.16499721857987804, -0.3540122866324594, 0.1846252760137676, -0.3413334616162835, -0.46027723001205284, 0.3983608130332256, -0.18905015507267148, 0.5132414622244665, -0.3706324895746321, -0.4411701152867516, 0.2467333234394398, 0.06459405024685652, 0.36058601928284545, 0.14826682955348006, -0.009925983190630467, -0.04563561133747808, -0.4046458618329619, -0.39293708838832336, -0.1156624660074075, -0.14543622309691343, 0.07059697542396545, 0.23171803916361922, 0.050673407792950376, 0.4478023027556145, -0.518777490366286, 0.31088398684603447, 0.020890111924769746, -0.18235610078658526, 0.13799788282515343, -0.1068307610477531, 0.3500895957321324, 0.031871159854851096, -0.40088440695707234, 0.17130591802262266, -0.3398917938626662, -0.049465186019069116, 0.42718713775024136, 0.33791344414588453, 0.07469794793135971, 0.3756062565622177, 0.48751523190635937, 0.27604312094463157, 0.0838174031516196, 0.33123785833121744, 0.42195312649858485], [-0.06761793030396082, -0.10485445906694218, -0.30771027516506116, -0.1728745677880412, 0.33861245872979256, -0.06977441203482274, -0.1632842750527764, -0.11221521225579117, -0.3442972594492668, 0.3186027480482683, -0.3885680744190389, -0.16297421106453414, -0.4431378910232568, 0.41529711150610765, 0.1732862910245829, -0.40458970673369105, -0.06567314420244003, 0.13454601854802595, -0.4988581687739647, 0.20661221735106983, 0.43874147762622073, 0.22677495132820794, -0.10392727467456923, 0.3720982628729401, 0.28214775622225385, -0.31290715697708416, 0.380850455226884, 0.39905032786387723, 0.33068137547982845, -0.08138165266410988, -0.48891614288377366, -0.1867446922963578, 0.04240503590020534, 0.3108866931762185, -0.3456458574406272, 0.00580562473580382, -0.23570005735172697, 0.048466432084935535, -0.3993336324415924, 0.3605529396816665, 0.4517838832709812, -0.09334507552839377, -0.06175203363761142, 0.2203176898907947, -0.0859221305665616, -0.08701185727248331, 0.22124930475851842, -0.21397238422104287, -0.24997252646879695, -0.12795350160730803, -0.3773089667398379, 0.2467103045817772, -0.22425533383980384, -0.061155525161295306, -0.226580638393795, 0.19159702807039, -0.3555831648723941, 0.44577306639512776, -0.10867824354673715, -0.3110206070491805, 0.29741529390576715, 0.4383925857239993, -0.2810229476619005, -0.10023682918471852, -0.3742539579428596, 0.20462219390431916, 0.3863267983745832, 0.3277467542234131, -0.37770960065649917, -0.24168169085928387, -0.3366263820910148, -0.428430261965516, -0.49588589619466694, -0.10858200372364235, 0.07287777824786411, -0.08537528453592752, -0.30719909043512167, -0.2931786821521267, 0.13297874195691284, -0.40756378479103733, -0.0654711686557164, 0.11500618178481241, -0.4811810321922582, -0.05460130702613354, -0.19737650004355414, -0.12079168509842071, 0.21355234310495733, -0.10603907766876645, 0.04395912330477236, 0.4898937639149612, 0.2912162181766157, 0.2898941248254914, 0.18698723072376705, 0.35574837060522707, -0.39523737750336496, -0.2743854113313988, -0.47586853253811867, 0.39080840387057997, -0.24337094068123674, -0.1242319267882691, -0.31952165694023593, 0.06050765436350628, -0.1585081786565582, 0.39727758618579717, 0.2117461262109746, -0.27424695203182214, 0.39321990414025404, 0.3507030352420025, -0.04036530347743764, 0.12273251971424178, -0.07937269761920344, -0.3504332756882884, 0.08443796086659924, -0.2931362832398131, -0.08292802659337228, 0.27446038304570525, -0.29837166048395175, -0.11166073080657928, -0.4238656023594426, 0.1560443990510406, 0.02578219623428589, 0.033836470998482956, -0.003024202649630844, 0.24871913305123383, 0.0195722664530887, -0.1804666496867892, 0.05443018168948793, -0.4994778627071625], [-0.11640157070948971, -0.28916018835924884, -0.21139437197423258, 0.34230632881138967, 0.4376867218830336, 0.14008562300700678, -0.441100028634855, -0.007106197017536668, 0.09798373324476405, -0.4626282000926951, -0.2015745716540955, -0.3393017289834367, 0.11284419985300805, -0.17273941621568478, -0.1323084437740215, 0.13331153572383303, -0.053834004146050295, -0.14374792688629778, 0.2659679864120322, 0.1668293272075636, 0.23065025098276384, -0.3809776436174039, -0.13060007119307648, -0.14542372502367157, -0.10671065149647814, 0.4539703699352287, 0.03582890227052628, -0.10267966003030986, -0.12568365805470422, -0.19783048645464804, 0.005449548847793108, -0.06330882546391318, -0.18039257880782794, -0.11301203032151949, 0.2119062507649398, 0.4683843281641732, 0.23905863675385486, -0.14699191309939, -0.4447796803507907, -0.2811258042041973, -0.2653258761206222, 0.0379615361539931, -0.2948361160611762, -0.25698685456127873, 0.2070901193547515, -0.2519435259186431, -0.04915541506720568, 0.16802620261647605, 0.2717430483768824, -0.2836940669493565, 0.4776702259990088, -0.3930286769346872, -0.2431124769286405, -0.27530386388368094, 0.029336128026471047, 0.3628433590750295, 0.46934945058523775, 0.4582698363833953, -0.39289249200034526, 0.3299396415486511, -0.06984155571564601, -0.4119447455020015, -0.14375886251847858, -0.412844867396148, -0.1456919828323831, -0.1373769950703908, 0.22922584619228994, 0.4228702705738873, 0.17612779633403963, -0.4327771128141006, -0.4775053524605538, -0.07733444250586742, -0.39098871330865, -0.2075142417183421, -0.031606423581791165, 0.31667160127976757, 0.22568396238077623, 0.31094321307500267, -0.10818862998501234, -0.19787258915881825, -0.1792826426157243, 0.03445398361763675, -0.07573320950633132, -0.3402138316949297, -0.2916496316666283, 0.08106952685866646, 0.02368081887975209, 0.4953239841414793, -0.2206665029665112, -0.3658554057708998, 0.24309908229387792, -0.16535602993181517, -0.3301424472417762, 0.27536399272406364, 0.060301138204108685, -0.0971887571546678, -0.04083593487660665, -0.4943874819632776, 0.15320091694764706, -0.3956640295839955, -0.36283066102890094, -0.21256808222868198, -0.10033864177166629, 0.03979865340065069, 0.18701532843778387, 0.1829773778397978, -0.021177012896953222, 0.39146237603464556, -0.08153700003393183, 0.06657282370774642, 0.14146086893659948, -0.16395070623566885, 0.3544396126600733, -0.2099892446104717, 0.49011548962260826, 0.3941498611434392, -0.17555062078143938, 0.18055903301468473, -0.36868596398333753, -0.16691480556899466, -0.23947610795476426, 0.4610574355998883, -0.13913873118311246, 0.2138268472016265, -0.17171456050201694, -0.125965276715916, -0.14561142885419154, -0.3649009485736181], [0.00864566065083658, -0.371150254117094, -0.2371861827099947, -0.2888100858923876, 0.44109629245175297, -0.2995676749251811, 0.35767500760558085, 0.14132169712695078, 0.377385608328406, 0.13730346221974488, -0.232900710669643, 0.3111254589363053, -0.1615941162829238, -0.32358836258365437, 0.4165965931196714, -0.21065101771917755, 0.06072123252141233, 0.3114692023330662, -0.2091025448264408, 0.30823313511037864, -0.3891341161748089, 0.15368773635207916, -0.4963272566987936, 0.2589290751681314, -0.3622377232815309, 0.4029210289710338, -0.28105383053930766, 0.15130869844670922, -0.29931621693631916, -0.46927070541104215, 0.1837679412032923, 0.26079395129863986, 0.0640335502450859, 0.412848537740467, 0.402055284272346, 0.234832947974296, -0.20107886523629154, -0.21434054243355916, -0.23619009740110342, 0.3362192449398462, -0.41792561312783133, 0.028033455303143003, 0.23926193971910717, -0.29240968716231475, -0.20719930661086458, -0.39060365307588263, 0.3197774660027716, 0.36900855129073973, 0.06256766105784098, 0.46371984757952733, -0.42791111970639256, -0.3757151919823795, -0.2618732461548541, -0.01679259693208628, 0.22164692541484876, -0.4073701105307584, -0.13590993407596733, 0.01404776275362221, 0.022199841105887658, -0.3168246976847212, -0.21655332183935133, 0.36383488737981795, 0.038306640100675485, -0.45614537474853484, -0.2756532500217053, -0.23582487312230405, 0.20146343608578896, 0.19601274347275072, -0.32149156040516974, -0.29219135502997395, -0.3946491832907328, 0.2842087759143678, -0.36525724579497204, 0.47391997713482753, -0.46726609827618787, -0.36576034162520904, -0.39402663366595464, 0.0045275155481880455, -0.4262306762805545, 0.11014911880596051, -0.03208558784386101, -0.12311177404657145, 0.434850857700902, -0.022315605763965303, 0.030688737059891467, 0.35614838780839064, 0.12490534803927461, 0.34933239629263535, 0.2805761106605012, 0.3335280021751053, -0.25465371970569073, 0.04065761309249835, 0.16652396539924497, 0.2709608435131497, -0.29528947198819155, -0.0524390394390385, -0.38794235091674384, -0.14781655387670012, 0.45758417555205605, -0.40871072241014444, 0.339661795351902, 0.17293074567146935, 0.34297152092916716, -0.28956112397998063, -0.27415770725642935, 0.2098969974220267, -0.22254482869690284, -0.16786196780111795, 0.1753131068790332, -0.10486892164004413, 0.05962190587682802, -0.018548386822698736, -0.3280348720421139, -0.4573503370333173, -0.38444212213974055, -0.46617327297557654, -0.1518617569585993, 0.3582334274340068, -0.49134302118527107, -0.13977197080360818, 0.10069004470247622, 0.12311503953571308, -0.12148950471073018, 0.3688330893102024, 0.09387293816534056, -0.08001770426034067, 0.4923421956847245, 0.3500526892182268], [0.3021717108509239, 0.04984446381659965, 0.0349752761331625, -0.10475076915431045, 0.5022096078161012, 0.32554781151697176, -0.21378208674588933, 0.18111778278854895, -0.2360102897201752, 0.22949552146348037, -0.40261516712520734, -0.12778600328529288, -0.21105179307799785, -0.18002776327163028, -0.0992952189049207, -0.043384448280934504, 0.1313642637214432, -0.2793560103696261, -0.19606266107486153, 0.4158178367069684, -0.34477650140568783, -0.3585452423394702, -0.07218321162833782, -0.15615266114403892, -0.03274991783274939, -0.4604851791706958, -0.044986106351541814, -0.3306735864112056, 0.33501361759768367, -0.3666675289716504, 0.1707038185659784, 0.1794474161233745, -0.501874691767313, -0.42627266000334385, -0.2920829466566526, -0.37840479856394477, 0.01774932586197643, -0.09748649057678996, -0.30817318172853747, -0.2743220791575526, -0.25168320311899334, 0.32089900816661693, -0.25340926043660267, -0.2864552719535527, 0.33234449529282534, 0.2964169789938396, -0.36252695728445095, 0.2952873125871923, 0.3815486373469161, 0.08327113343310695, -0.07454785737200172, 0.4014553853983993, -0.48352720114170805, -0.37618320829903623, 0.24906798713989806, -0.3239739308118841, -0.06155776567240884, -0.17749705420215797, 0.2513999877050993, -0.11071040488446031, 0.48787537895342403, -0.4815102840051147, 0.162136274491982, -0.3744661220056181, -0.07506159523248407, 0.23631939482069456, 0.014207263843086966, 0.20959215897077235, -0.0446826221474502, 0.1855483392616034, 0.09145183860094096, 0.4866278106902242, -0.18911214663517315, 0.2824947072653352, -0.2929314189110075, -0.12525096137423286, -0.35902099656468445, -0.5076846028346719, -0.08956432720808788, 0.13683014609683222, 0.20332901410558055, -0.21597099745955395, -0.4486373636770764, 0.4070802225901312, -0.12512664192943962, -0.07898974158786833, 0.3017746455568468, -0.41805009490942974, -0.16025541762996842, -0.10292694087199986, -0.31332904944183165, -0.45378778355784366, -0.18008104707527037, 0.054545066592068765, 0.4322739337055153, 0.4315103935644093, -0.04856290361310396, -0.2023922677876135, -0.2069089919140264, 0.46578648312458, -0.17569472392828017, -0.20922688659767144, 0.0558128792354966, 0.06610715192125488, 0.22145925762359053, -0.3684832780027365, 0.3439676005261271, -0.19919833989175692, 0.3838757999799646, -0.4901134358947831, -0.23737833618398946, 0.15042372631928516, -0.2735368535004707, 0.15894032708154576, -0.005085584809645889, -0.38999196708108785, 0.2225636177424718, 0.19811703280368925, 0.4332423554818104, 0.010379602033409359, -0.12247691977876854, -0.043047157515568535, -0.08555359297311278, -0.2793544375509142, -0.38434310849101094, -0.18029511393686806, 0.2238274181582238, -0.010416766943215142], [0.14466338945513754, 0.4547138605006503, 0.20924983358965618, -0.48064083871288166, -0.11223675902647094, -0.05162926229083588, 0.13681860372044388, -0.17569863951620962, 0.14509252736812453, 0.0023364382670470686, -0.3187847058619908, 0.28473507860262837, 0.0869358805935743, 0.11678702670872558, -0.26677138146646734, -0.21838667126496739, 0.23106291890452116, 0.34623508270818154, -0.1494459038600901, -0.22385437259168883, -0.07531679902109979, -0.16991067037091848, 0.2660792698042564, -0.10441056148380506, -0.2855425801569793, -0.09709616091248319, -0.1947166323745379, 0.4461340001797566, -0.537339118773106, -0.3378550377251417, -0.010875060690462873, 0.45283063850100563, 0.044710594680384366, -0.5054058140278906, -0.4122950358758741, -0.49536682218944417, -0.30780935638588014, 0.30029020414722213, 0.04428464115597, 0.14840659304421555, -0.17571588354797865, 0.2577118254600792, -0.6655469574691361, 0.17558779622041923, 0.10624031799266523, -0.4201692711539113, -0.27431450186871953, -0.11652622328962128, 0.21302328583626057, 0.12732838591894236, 0.4211759652302909, 0.10646986195418748, -0.2237266016545344, 0.28989115919561537, -0.45514611222509904, -0.11877304824048528, -0.3166120302153943, -0.22700438791072292, 0.11450426248439932, -0.41750496368956386, 0.04498526673328566, 0.2389731331611108, 0.17046616262284042, 0.171550141939119, -0.08750670744558658, -0.29191696025046643, 0.3691117624011787, 0.10216388221006613, -0.10831915214399374, 0.4441088338095347, -0.019640044338102527, -0.06015551582496436, -0.3115471265582669, -0.4652849616369563, 0.05638403384029308, 0.09196402430091424, -0.3923355595084318, 0.29813361816254547, 0.3359186421717174, -0.03831373054803577, -0.530267542851935, -0.037259247057211814, 0.08660712121959883, -0.45927634074473545, -0.20460209398675533, -0.007798993261386827, 0.18773436346997005, 0.16314301040623258, 0.23640316592581978, -0.388645936172534, -0.16669286518655574, 0.0841401237457037, -0.49446647520791903, 0.24466210804179034, 0.3600037681763574, -0.10126186951574968, -0.10787446687336437, -0.15998376699321076, -0.15871822047960898, -0.411259102113758, 0.07096023752340819, -0.10677029224453036, 0.4382665372580204, -0.4068175609837985, -0.015473201143836142, 0.048446760227546015, -0.2706713695244309, 0.3981050287514645, 0.16605610297281484, 0.4719624078122323, -0.6447231093183772, 0.31530728696136695, 0.47986621391082535, 0.09592984404343606, 0.1443904838725256, -0.4570497392319686, 0.1699273401125942, 0.3431646612945652, -0.24702342061519064, 0.07555595957347204, -0.10974676401546783, -0.45832725773579125, -0.4472444113517587, 0.12280519190884759, -0.44701287490467145, -0.0703295324157226, -0.3293061063343157, -0.3503927307648014], [0.16224546853371308, 0.17693885043751312, 0.21411943522775942, 0.12402462439766948, 0.026601279192364952, 0.44142487517016094, -0.12219980532517714, 0.22413753987128585, -0.2264061438710486, -0.4514025008105428, 0.2795198829125185, -0.14921558707168667, 0.04326423113963452, -0.4049416521437895, 0.2500219578123026, 0.19643836086541544, -0.389194220939408, -0.26343232314151643, 0.19751828704569932, -0.07277286695257157, -0.015326750202903862, -0.4462847383250749, 0.37743516649307374, -0.1773139077017053, -0.3513097846029271, -0.4908806185502044, -0.46014182161561323, -0.39301673958522026, 0.03723530134105437, -0.217226560507625, -0.4007149516896634, -0.14461551159648572, -0.1083024439008646, -0.027794918161893282, -0.41083081421612483, 0.34334790385513286, -0.3441956154205526, -0.15896936648147378, -0.41216076017790737, 0.32880942553840087, -0.15873002369253147, 0.16656865489670405, -0.4369275494041231, 0.38040376073781734, 0.01450195795777259, -0.18962738349067224, 0.21773673297815535, -0.07774745860808831, -0.4864416254719271, -0.3013620422913384, 0.4128861122712116, -0.3598212003089331, -0.21485423481697014, -0.2712053557564653, -0.012297570710851531, 0.15787189222858197, 0.3196443441056244, 0.5012001593190539, -0.010902064753701672, 0.05701593797889443, -0.23459376149458042, 0.4630830692440392, -0.40212094214340366, -0.5045799633087303, 0.08516473543150203, -0.03309125453659219, -0.258202247294334, 0.43554386286064994, 0.4350149991742069, 0.3161303427346341, 0.1581113654579792, -0.4378106520547237, -0.17396550265292973, 0.47339423561015204, -0.4139615062239918, -0.40972540362003285, -0.13963455605902467, 0.1866165719791292, -0.004322011467425217, 0.2874886355627361, 0.3054427030331706, 0.39272971514454286, -0.3709779852259236, -0.36154415772185305, -0.2737174744373268, 0.03187531219631661, 0.07060951933671047, 0.2724348848827506, -0.39283093343762115, 0.19496461201801465, 0.4625807433151953, 0.028738769012000964, -0.007166675776430765, -0.36529316416070357, 0.23838284942992666, 0.39296863177383684, -0.5040675938478489, 0.04277916483971765, -0.40467353566719055, 0.10064594624612751, 0.22691038938992325, 0.008620569785104209, -0.0028246274547316596, 0.4718473594617366, -0.5006167370569612, -0.2943613365584238, 0.3603667456981394, -0.09754570001160948, -0.4889592370995068, -0.1094471434170445, -0.006029001688618158, -0.292745014561871, -0.4403246646474357, -0.1897268039228135, 0.40612403256622465, -0.44323052593075507, 0.22284400292120854, -0.08082667626483143, -0.3859151775172015, 0.050012602973344554, 0.06332738504985874, 0.18133149463199855, -0.0615714018216353, -0.11123362582657384, 0.49500171094018974, 0.1934125496216435, -0.09522467219273192, -0.4624963113088096], [0.34163739161820206, 0.041713386440940185, 0.2027500725874059, 0.1337277281470457, -0.13855010151796274, 0.04199346688002229, -0.19773075458724693, -0.36884838898926864, 0.34403225567858037, 0.28207560278381144, 0.07987763144213876, 0.6181440686862294, 0.21599090959152845, 0.2223281547628966, -0.23060925852920136, 0.5562727073733528, -0.4831705291694705, 0.17309536224961872, -0.33105292304443285, -0.14482024522208228, -0.32411462708221966, 0.4028828208383077, -0.06997613595329194, -0.21480185199575588, -0.2763321813672802, -0.07889834076604049, 0.44402959425046, -0.39610582401436545, -0.33544913987535746, -0.3207686050241148, 0.4127206376387154, 0.31370545534198613, -0.4282597036464042, -0.1574434791971631, -0.0030289475996910487, 0.14079848060283096, 0.1923880879288724, 0.42623246257717273, 0.15197573449580454, 0.30458460187431435, 0.22087576007136228, -0.4625694798685713, 0.1459968749676536, 0.08083807776938061, 0.3588802565205728, 0.4002712902621818, -0.08941503998983498, -0.43724507008241126, 0.1898881421221828, -0.1953787316215879, -0.41481597083577343, -0.12235281402909669, -0.4665681599087055, -0.028001650135237397, -0.28243546015165666, 0.281655708557707, 0.3194879232906109, 0.2584678711640656, 0.09210438384541285, -0.38861277577012254, 0.4648374347807892, 0.5008456546215733, 0.24516226948106432, -0.3049242930487923, -0.4039413546709497, 0.03572088828357307, 0.27526909496709545, -0.3212106499317325, -0.31164701017150914, -0.04713297041896064, -0.22966599850621816, -0.3149249834418587, -0.08002321480353204, -0.28310753852968634, 0.10533828700377307, -0.1500041230688284, 0.2748705592363349, 0.37292570644589673, 0.08429688645318083, -0.28465827656303205, 0.10270624887529088, 0.3732110816591828, 0.11279101883534799, 0.2848411982869726, 0.17518970562216632, 0.2715608270438205, -0.38634299021853485, 0.3187124716756986, -0.23780797014478305, 0.027127657293089007, -0.25743255299071066, -0.3487426361584373, 0.612078811252161, -0.07723285886445413, -0.1946589661531094, 0.08780979016394742, 0.06850315612185941, 0.41246907813858175, 0.18145962548407332, -0.11752266178827485, -0.21566337954982778, -0.38536241492232726, 0.16380517791856988, 0.03844287469671763, 0.2419403019584331, -0.021413754736195167, -0.308263320989637, -0.4809488385608034, -0.3204007929597443, 0.015604371847506815, 0.11323440657070256, 0.13407568544306653, 0.29427159636430683, 0.5504550638698754, -0.35267916985906256, -0.030440819038357717, 0.05502328002113348, -0.3095848960959296, -0.3366899994841837, 0.4534489332347622, 0.06369075597518789, 0.4595264209958748, 0.45456626061725525, -0.3534006997978899, -0.3194279487487734, 0.21583676533936277, 0.4280496599565502, 0.2264659199043219], [0.46357611376539565, 0.2788902900310496, 0.38288261298914084, 6.80590867866176e-05, -0.11140711541142018, 0.4329791277633969, 0.10282925120772411, -0.2530234028711835, 0.04351089488662714, 0.15345749188773405, 0.12559320100309082, -0.43893551943127135, 0.06879374272685619, -0.46963103428961533, 0.1368899839457955, -0.2208882661525872, 0.30901691626026434, 0.10174716992108572, 0.08986346461167154, 0.10540939750498166, 0.2653804587573926, -0.03820428634686166, -0.1310836953699435, -0.45785969202208393, -0.4161497129474309, -0.35276675483956393, -0.2704438309952137, 0.30036239150430716, 0.3736225179198195, -0.2300508172363739, 0.2921357425176974, 0.43639677865332127, 0.18958934309170125, 0.13514901280112188, -0.3746533902749877, 0.33303024151639665, -0.2529507898080456, 0.29645251731819616, -0.4080416427343083, 0.35938421241028523, -0.328775387355897, 0.281179985190454, -0.061930532648973156, -0.3571904491808704, 0.2446340017262608, -0.07137883953389254, -0.15052633282391403, -0.3387474632524562, 0.1057611875935055, 0.09625498114287039, -0.23952431252169581, -0.24460474710033425, -0.05079655141144013, -0.027641896521070724, -0.488970126914644, -0.2878565056731, -0.1595961736486492, 0.21505575224341644, -0.24025516799053737, -0.05064602958636287, -0.15049641446260298, 0.004546832221057674, -0.3075149145661837, 0.008031854004515004, 0.19828365592162384, 0.4299724066545026, -0.27023019132472575, -0.3814157115762824, -0.2264399067827115, -0.17308855230070078, -0.445722262278246, -0.4872555200457781, -0.1327599527948148, 0.3635039674657649, 0.23879469112428786, -0.3130263922619203, -0.019281631617101697, -0.19475189716898142, 0.1691424353364945, -0.41475280913211443, 0.3667844969124115, 0.15495389653551558, -0.19490036180033016, 0.2884766887347321, -0.44014683989208536, 0.47048119713639874, -0.2956744934702772, 0.3370820537162755, 0.34420614590860193, 0.24482185320631375, 0.09303449822216234, -0.3468999589740575, -0.11548178883245716, -0.1820848164802413, 0.3874644819480956, 0.19248698755179286, -0.206385003465689, -0.08907049200444687, 0.4136604868061168, 0.35268869770977, 0.006667314091348049, -0.2974888211333291, -0.40705619899250045, -0.4181437607326134, 0.49725604599670925, -0.174667067805472, -0.3492509843132582, -0.1848293595689361, 0.244041882379424, -0.06180491084337964, -0.2892405831297553, 0.2423353131570798, -0.04385522963221143, -0.45607521525347483, -0.2396833554405592, -0.4344715591946431, -0.28320114458673956, 0.3531198612895602, 0.258994949414896, 0.36716778851923015, 0.14841493175277837, -0.3958643521269443, -0.43859300615168473, -0.1085069001430254, 0.43537961837310674, 0.05313095716640639, -0.31664672541756705, 0.2115966494957568], [-0.4125086948008196, 0.4585675603669996, 0.17415193543962398, -0.06592273990743774, -0.18862492383231622, -0.42144872602518485, 0.1013269864150769, -0.14526696924097493, 0.295097243570987, 0.12302790383895672, -0.4210329216656483, -0.16545423385585273, 0.14293636170453128, -0.10823234998666452, 0.49100989831080827, -0.3029780159166695, 0.11766823574550522, 0.49188787087681674, 0.017640625430893245, 0.22316675999911043, 0.010199186792075862, -0.06468324993759993, 0.2975906183947787, -0.032214051302691005, 0.12370703763564843, 0.11097280939335279, 0.3227073350686902, -0.32611622500162685, -0.5603378609265531, -0.4005807829083766, 0.1203412619420026, -0.3686345655418596, -0.5015058931802289, -0.39614360004165133, 0.38649804200065857, 0.08783344724582356, 0.39017355177209134, 0.3957995713650842, 0.26493912467834824, -0.27355085535832757, 0.11565206399127252, -0.48386681425433997, -0.6209306173836892, -0.42656915968041836, -0.05736832729686188, 0.07308287471358142, 0.0699428564676114, 0.12984764814881233, -0.16186763579642574, -0.2917780771649674, -0.2718891374594378, -0.19690329981508473, -0.040112718917373474, -0.29194184536518664, -0.17684339386983047, -0.13909496715345576, 0.053474173678576334, -0.08000337856338857, -0.18738307709444238, 0.22943549079605946, -0.29950222670264137, -0.27265105111198074, 0.2966803224136539, -0.0899156601316974, -0.4941974941187037, -0.09573446966696925, -0.3969966089561871, -0.28342593826561546, -0.22578509863551666, -0.04229651313954154, 0.3672957012921698, 0.12596358010321407, 0.21620789991492587, -0.10300359890504467, -0.33628271698719325, -0.2861222385351068, -0.48562047980889494, 0.2793034832809407, 0.41785842167031756, -0.3073093915961253, -0.4965548371911975, 0.40213061035520997, -0.42007076857326403, -0.33444227665894355, -0.07239101218915081, -0.1961845468798649, 0.20145139048034372, 0.1207870256799421, 0.26309724561909764, 0.01204427850776956, -0.4038596016342077, 0.09272763175020994, -0.4628795805154894, -0.14407985503414567, 0.23119024152102097, 0.051669160275679804, 0.2535115949681541, 0.1291748594473111, 0.2898260095884946, 0.17535398817385267, 0.11986533999952162, 0.24521897249080474, 0.32438445945821137, -0.4164762102791441, -0.5204421103181397, -0.4302608868207119, 0.17749018296948796, 0.45152267670186697, -0.06301794288055396, -0.4287632605265468, 0.3001503934813503, 0.05358280817137749, -0.08223024694546015, 0.029487634270802796, 0.24859142516641294, -0.07455280101040047, -0.07473650662824627, -0.017055456540448346, -0.4746518082571275, -0.248646548614152, 0.33852467388691687, -0.4947606075133045, 0.13109947410157788, -0.46149039690960575, -0.28243287403337675, 0.27571890802993476, 0.3185929273685721, -0.4995983400892665], [0.030942199473877694, 0.1366840823209921, -0.2634116114957542, 0.21627479744037767, 0.1895009155182679, 0.2385239034804208, 0.18186793922698982, -0.14299612865637845, -0.07402477555370915, 0.2908193698987537, 0.005638043852151692, 0.03583810223606683, 0.3289193505237834, -0.10168101946097263, -0.3128324036931404, 0.39034278141851375, -0.3734969168442143, -0.3084168622976673, 0.480236030162373, -0.18206819584895628, -0.1405943631596823, 0.038084624153864786, 0.5879211182896341, -0.025563553660424215, 0.14930767422768873, -0.31087027267561146, -0.3632340833449853, 0.2205310770925798, -0.03295709049219723, 0.4550911700619738, -0.47559727539313823, 0.12443417808823691, -0.36246462096777926, -0.46130262117832, -0.40090359400980574, -0.028105706090328905, 0.314172043518939, 0.10166576340474599, 0.09837886656959127, -0.12600283595955683, -0.4069385668336253, 0.25887184262733365, 0.159834967814448, 0.5220613963568569, 0.030211616802582032, 0.12099086116570408, -0.48530475464110573, 0.0005016209154231157, 0.02307075229668348, 0.5059076291033192, 0.35609023516979216, 0.3232834567739892, 0.5300520613049625, 0.07447036644133474, -0.10792856304538685, 0.5661182130423777, 0.3738698829456712, 0.42637081395817245, 0.302419623336769, 0.12255000860722208, 0.46111900691629504, 0.3811239398905782, 0.3870773560982299, -0.45369036317836975, 0.44452311712154224, -0.07725537461517909, -0.2724585915817662, 0.30684611464992184, -0.34706617087941705, 0.2997858986622992, -0.42304614485162034, 0.4565957230932066, 0.12425657277332895, 0.24307555395059732, 0.5397025057940769, -0.20391162738086596, -0.3763406630321459, 0.2853070802313801, -0.34739124721647535, 0.30834056703723023, 0.3151045589308926, -0.3501942559377906, 0.0630052350273602, 0.38903856184182045, -0.10561989710619814, -0.04980460652949119, -0.14454400673495735, -0.28973744286419695, 0.4954431038051077, -0.46680611365750796, -0.21942969270644808, 0.419482515609616, 0.11326177567015003, -0.22871515350427032, 0.18018679374067276, 0.3215326270522975, 0.6392766732033703, -0.10141908043457212, 0.13801351318666777, 0.27819273125859845, -0.5069346749339474, 0.28104972047142796, 0.2578074898777975, 0.45843533952607834, 0.06493041937699265, -0.29413319703872165, -0.018954270528986086, -0.23907289096426473, -0.3367341939724796, -0.22360379145837864, 0.07965215464659642, 0.1869201984866179, 0.35356283207081735, -0.32255772698655555, 0.1569251653027757, 0.23797486760910794, -0.03629032527107766, 0.3516927106728287, -0.1425319758831869, -0.204771274486811, 0.41935334439272043, -0.07948512271960136, 0.3224138271614451, 0.07691250255136567, -0.5025338122095351, 0.12267423913441679, 0.11179324544726382, 0.3113523298533273], [-0.29298903512995167, -0.1462245701004403, -0.39446954707627874, 0.061650903254483365, -0.39447163478769715, -0.007145651567997818, 0.12160552737181811, 0.23747011650885722, -0.34584836862964113, 0.22383937882565016, -0.4045290240168121, 0.2692449140423834, -0.681824077918535, -0.5694354314611288, -0.08255300514810025, 0.13852396144249052, -0.12317391474682654, 0.4273920614373112, -0.4761592043523776, -0.4524780538279731, 0.18066216392095483, -0.2845751338438362, 0.011570667184842412, 0.3230392873542247, -0.23404259841894753, 0.21321156110598852, -0.1991783656369521, -0.09223856392886846, 0.09622176122621716, 0.3393452180225963, 0.3106898285470268, -0.22585793331406387, -0.47222898106204736, 0.4117206055525584, -0.05637244309846471, -0.5577402350325456, 0.23749683670236668, 0.2702000282630956, 0.21148417135114503, 0.1861724060030038, -0.2272900473694114, -0.2016634522806216, -0.7101615173786064, 0.3381715684273814, -0.3557103643707402, -0.49206979013922403, -0.38092176699064245, -0.23239086530552142, -0.4707772527817064, -0.36968531425980466, 0.4162753862420473, 0.2878631319273099, -0.2408978754984945, -0.3942542994077837, -0.0706264716404528, 0.28561096767634686, -0.17774044719203547, -0.44395805262530713, -0.12839725590414028, -0.1284809941655231, 0.05710722862582629, 0.21110218301843825, -0.07954760653123694, -0.4299014511294588, -0.06837600131559599, 0.15158190386006368, -0.41198184380552416, -0.2931056800827977, 0.025794851025202473, 0.11928778320539006, 0.10152562525892415, -0.23634089666551653, -0.2999400390020783, 0.22008722010248918, -0.2305878269455121, -0.18799872134399645, 0.30619946722712066, -0.18986008109837355, -0.111937360434589, -0.2184839889820282, 0.25554132051003364, 0.17329812707177647, 0.35361799356736673, -0.09676422539837404, -0.1565964093497363, -0.4689045716518602, 0.19566187810422486, -0.38908295859029823, 0.30390148637702896, 0.46994332117391274, -0.4418271650114486, -0.35644410981563246, -0.3787039113545664, -0.32304306413785533, -0.3057726152846875, 0.03691733655179292, -0.5654046335415484, -0.27168456598203394, -0.058423955040367834, -0.41131132927564107, -0.39971788486608023, 0.16553695871502955, -0.30088204667756335, 0.23496254319149124, -0.1700003562952622, 0.28028717298717215, -0.015609348603806918, -0.08202143235428179, 0.07210950427797787, -0.048610193711518986, -0.17130037746131443, -0.1969237895308329, 0.027158086020958358, -0.40627170239321975, 0.33414664846138836, -0.3610790690467648, 0.07952598997374004, 0.27700244688105174, 0.27001876238498984, 0.31976647311846734, 0.18288916550779108, -0.25327004147188575, 0.1154891030645934, -0.16389153024175696, 0.4299292398175216, 0.19974685032841832, -0.09053213165635363, 0.10494878379895732], [-0.2785348008916137, -0.3910070779094361, 0.40800982082247067, 0.02515888237808317, 0.027332652824441906, 0.326831347558945, 0.12231950851845799, 0.13890724429259055, -0.3593027564173651, -0.006656793016947248, -0.16933923610563173, 0.27539023659958856, 0.6280474395308558, -0.330849222246075, -0.009098541290386808, -0.278064198125384, -0.3056355668520075, -0.3533752546380178, 0.46062058884887, -0.16512877993806635, 0.4840941363441203, -0.011006946835632218, -0.3206119477683188, 0.3571760127749524, -0.26421369974188763, 0.529861366152992, 0.3239278980605751, -0.25361594014102923, -0.2137621885980054, 0.4423455289406452, 0.16463337153051955, 0.23541186681856366, 0.10119647085006214, -0.0028769094308354402, -0.48772753226936466, 0.5268542586211005, -0.3211559103714147, -0.01598784316130477, 0.37657259897174056, -0.5669879417750485, 0.04607358803647786, -0.27878568287039684, 0.11435229655704335, 0.338128479631674, -0.26727429596086855, -0.23055296785763954, 0.3311173828889154, 0.0912430471772619, -0.48769922399465493, -0.12778584018048597, 0.3710513149783485, -0.3560651262033506, -0.12945153834405615, 0.25862942241828885, -0.23495749677297464, -0.2533839364632618, 0.37118188811334624, 0.028114932635938568, 0.41536212553702473, 0.22862811535664057, 0.20067032591447895, -0.27440739958545235, -0.11069006574726314, -0.16935955905184233, -0.5195214325845523, 0.40630287083503164, -0.21895659708034182, 0.360312941529668, -0.034294654247215076, -0.027459806744231704, 0.16673802780402175, 0.1727977802892844, 0.07449466104190407, -0.14324222597192895, 0.3440102448227825, -0.06955235682152253, 0.4643544689418421, -0.41335320134327974, -0.19572021133556544, 0.02671927193067835, -0.32158151625755976, -0.20043291546804712, -0.02017034207157418, 0.018090223057966405, -0.1717614543451844, -0.4563524339815254, -0.08885255467193728, -0.48029086030955565, 0.3498407459862809, 0.47180139985945524, -0.3554196850617653, 0.19933956437466815, -0.3341460508610005, 0.2824331222891195, 0.452907502306827, -0.4625945458369225, -0.030143727543967283, 0.450295949275076, 0.22891372790585038, 0.1862970082976568, 0.05579627295475517, 0.02260245786761038, 0.4169589254342631, 0.3968138517714001, -0.27133667842562337, 0.5001836693736067, -0.43351610034595295, 0.01615159946528777, 0.2842842651410883, -0.4315190115200612, 0.007122460261713242, -0.4670595427075855, -0.04141143237325216, 0.31158236396296524, 0.338016593993974, 0.24829503365770814, -0.08216817309676223, -0.32856513827747136, -0.16857092163415036, -0.4387208575077496, 0.5239864606706285, 0.5869174527508487, 0.3009443332844172, 0.2745372906810997, -0.48109146474243625, 0.3107434370814198, 0.3791312583035866, -0.4814114875012097], [0.0150683990463565, -0.4003685959803857, 0.056739762527299065, -0.5135745029765129, 0.008795908784382757, -0.07812816005432323, -0.4312251578753637, -0.13267105706123497, -0.09404055767041199, -0.13951404021457478, -0.30900030103821224, 0.23961471938068768, 0.47314154184846846, 0.44764738273997956, 0.1538961208356852, -0.4207653481799769, 0.383121408307815, -0.13535147047906215, 0.13706864262244972, 0.19136533138965617, -0.22731033596663666, -0.05417525128617998, 0.11049398752967718, -0.3268178651582189, 0.5042713051776774, -0.13149521533144695, 0.24826814029489502, -0.4819671363575591, -0.21138931692201685, 0.4321154453505401, 0.0849772516896784, 0.16228256617035153, 0.12743077164912958, -0.1584940894073122, 0.09458191294020761, -0.29831437746477374, 0.02639550380336942, 0.33610623659677435, 0.0056096615642209, -0.40561802960073734, -0.11011509660081098, -0.27446684145350597, 0.13367517828322664, 0.5811700721678523, 0.027346579960819562, 0.313540991079289, -0.33286366334429524, 0.2658936271207191, 0.13718413889022388, 0.06312690258273904, 0.1216320370718364, -0.3142206931892445, -0.15742374462453704, -0.03998126881663723, -0.05886821801596195, -0.1417318073625509, 0.15890998416467259, -0.24525882128247783, -0.30803615216160823, -0.08009892885681472, -0.11329229632722165, 0.3406513152688917, 0.32535703685049405, 0.22711289986559208, -0.25630294388115044, -0.3892254752812383, 0.03798825488387856, -0.4322760425180626, -0.013375472321969901, 0.44080294264968933, -0.24158475574184693, 0.18333547745353312, 0.22343513661286324, -0.15233578906439754, -0.23800433674164412, 0.04295666174408692, -0.05036011491229074, -0.3513673292831241, 0.4070845930367054, 0.32432294881025336, -0.6396908260638137, -0.1233850076580701, 0.4044326904417203, 0.41537895352626464, -0.5191560094211711, 0.2834603578677366, 0.09038014653093888, 0.18232635649683518, 0.3852519150744631, -0.10570968736449254, 0.27596040304449815, 0.07748080584801582, -0.15584112405614373, 0.03512355750454035, 0.2538466828844122, 0.2962467191122261, -0.05601988221345617, -0.11397989912091205, 0.1648013081405825, -0.364231279849736, 0.3068931727125443, -0.004019696288187997, -0.28762955679892255, 0.25591347021270633, 0.38269599964742074, -0.10942687517272644, -0.048389748898618606, 0.07389635202597254, 0.22404694420215904, 0.30840098554594964, 0.1284780796750247, -0.14745983725064393, 0.05005856486298838, 0.31272751130982546, -0.37318894769891053, -0.18392570331368693, 0.2892108240625815, -0.1902192599063659, -0.3231194864653128, 0.276137261202216, 0.2811302421747754, 0.324311379900551, 0.1513241815241094, -0.047360271129622884, -0.024420249065889407, 0.3753657178878972, -0.23460722595927685, 0.13126616167363606], [0.04812378568140162, 0.07160432933213412, 0.056875996722968475, 0.21930118967195414, 0.572968298012064, 0.24294972460556283, 0.26564462589777366, -0.1682814586786225, 0.4471030475852035, 0.32486577435866526, 0.3130657463055878, -0.035981819428416995, -0.42584467634363, -0.4034799658107648, 0.32130177646362823, -0.026716730218753107, -0.49118736165665583, -0.2775785359325011, 0.5901213413800883, 0.3093255490396036, -0.18401985856982048, 0.20838103474772246, 0.3174128295022495, -0.20617186536242352, -0.25699493261395373, -0.034076755155813876, 0.36690814515916054, -0.18040981323020022, -0.04806693285266086, -0.22057005736797894, 0.4234493756309061, 0.307672407995433, 0.15045162937051224, 0.46558987237007315, -0.3248389092071112, 0.3152286097199382, -0.07970419470548316, -0.14980093386945295, -0.2768230962739866, -0.1536625447708637, -0.4151085324959647, 0.13354384961126256, 0.6755018733883268, 0.38113072724283154, 0.1980137213245527, 0.01400166128013043, 0.19467527956739433, 0.1299286523307131, 0.06246189386200319, 0.1587923757432405, -0.0167090579745548, 0.33752767686351826, -0.18416511752804232, -0.47815823574590915, 0.3481012281414341, -0.47794479016864805, 0.027047080225084046, 0.38686891539040763, -0.28831588833675703, -0.38324112211809563, 0.5358745583497189, 0.06217356602773816, -0.2752231265506656, 0.07459287383730771, 0.4951679719705651, -0.3809052277372631, -0.0630408073163183, -0.04780781607969424, -0.29681522434886787, 0.42462266992645564, 0.3243947986395151, 0.14038424306597963, 0.34865493796488073, 0.029396028892663635, -0.4030063423754471, -0.2626631959184305, -0.4071892429141687, 0.19594368023082595, -0.2420522509624396, -0.25013149757899994, -0.23517826686530266, -0.11577174658825883, 0.10035366051963833, -0.30758618018505457, 0.48682011026694644, 0.4101154894062399, -0.27197302387322575, -0.10881580474994446, -0.3543338455742539, -0.0017297753328763866, 0.5350502427522977, 0.11354515641637751, -0.23762319248433086, 0.5029799131930909, -0.4282735429207241, 0.0633541195933678, 0.053617376712936204, 0.4068340571078026, -0.011243134633511762, 0.22817014697422536, -0.24322802675485986, -0.006865773140670132, -0.07613249496152852, 0.3555532502606288, -0.2340136337609014, 0.5370981292944148, -0.2391015832883736, -0.12832623025263387, -0.24287356535523402, 0.5028072673610832, -0.18683364248916176, 0.3003936502005914, 0.3927932938023727, 0.16398612373208454, -0.10778631888936319, -0.3926981919903673, 0.16683596051285227, 0.02740866218199711, 0.20168674583354512, -0.17649836313401115, 0.14522178989885756, -0.4518018625191347, 0.16659433443388152, 0.43941205956858265, 0.12198689065020958, -0.04668941679032326, -0.2998338674990182, 0.4429458910752768], [0.047333628161399105, -0.49864357380526936, 0.39005235296798113, -0.20098071240108623, -0.2596305393995341, -0.14855258205947913, -0.2898918972698141, -0.43909486995786207, -0.47916273693598455, -0.48345988227404013, -0.31699521051790425, -0.09843640690987501, 0.3408333287889483, -0.5078476075807389, 0.2765316166190952, 0.36489403850681906, -0.045804943307022145, 0.11938589334854782, 0.05460323791811771, -0.4025045339143268, 0.10381290077649767, -0.10270952860519961, -0.49768350130890315, -0.23008676749167992, -0.02956875007743469, 0.23282698575928945, -0.20749242162144022, 0.3581443122346995, 0.4319106228758887, -0.41784051926082977, 0.4534825679835502, -0.18950960802686911, -0.16296108018502262, -0.1260229515349103, 0.3766648861545624, 0.07882431860823609, -0.38902829520314686, -0.38578694572221206, 0.29324780624576735, -0.3809088931437178, 0.002030445174597339, 0.04211120796785438, 0.4467853077139324, -0.39773764194019084, -0.4814897744482892, -0.2725845696506397, -0.5104497558664691, 0.38516704829060533, -0.15592994089868845, 0.07024163893312022, -0.19536009785965808, -0.42195442490486074, 0.3102503537702777, -0.11498849893656131, -0.30328645741559696, 0.3951895752361838, -0.4645780535032853, -0.11542103784288844, 0.20658015364158905, -0.2957929336855644, -0.2673667444345782, 0.4259744699519659, 0.47576826545857986, -0.23507485899482103, 0.4357657897421197, 0.445687481374529, 0.39996158809433874, -0.5082713171762939, 0.35842649166865403, -0.33870890199247394, 0.11791797302308019, 0.41385863382578675, -0.19057980225947058, 0.21921105217598652, -0.3959142243924965, 0.43117239303151134, 0.3360014314036074, 0.26363600958556177, -0.030490036840478164, 0.38442542182173756, 0.41898880488315626, 0.30971807930815365, 0.31435815392595223, -0.07636826437812305, -0.24619679901204436, -0.4722550259074247, -0.15858185246629686, -0.3797913129853578, 0.3084259099832854, -0.35507790731016814, -0.43063381711195453, 0.2834085008146806, 0.12412104954374802, -0.10277393322969984, -0.3663863197676559, -0.14988765272993926, -0.3955206719738826, -0.3271333576904736, 0.4100864804044669, 0.23683628542707127, 0.05252513313573045, 0.12649527852553988, -0.4148753064564002, 0.15463014255310642, -0.4102467872135191, 0.04976456311798316, 0.054914263624664165, 0.18878943790576092, 0.39829730815810244, -0.18137631275336738, 0.054047182761006216, 0.25688026765715904, 0.3079865296408375, -0.2773067033776342, -0.015132514631968262, -0.10108259951355328, 0.2674731285435868, -0.46436489292137356, -0.15010011820349534, -0.06872410608908451, -0.15234703370601388, -0.41447266816919326, 0.0316650298030038, -0.004314353675655184, -0.13001287441481624, -0.12587683431658345, -0.4905448725486104, -0.11254121420097249], [0.3219656282817885, -0.14112722917869927, -0.04253650306391234, 0.011899849701153405, 0.25127086909835444, -0.03154499034442034, 0.25349702540426816, 0.4190648167812732, -0.5028063135349115, -0.02398341272363647, -0.1371255473875012, 0.30251196526976376, -0.14904638061811443, 0.2303789756944623, -0.14190581972683508, 0.059812835328469385, 0.42390187619818864, 0.41009642264939167, -0.17483794576691694, -0.4932813196275116, 0.29308439511763623, 0.41952439994938484, 0.274236689188518, 0.24414321073257206, -0.43229338223964026, 0.3598009265345577, -0.330239819906199, 0.04613615891930925, 0.062287525525212065, -0.30574465467570155, 0.29174012567476143, 0.16085638582827844, 0.35892804971882664, 0.2678869502825151, -0.22913046123925188, 0.05630458527284869, 0.48167989848835796, 0.34475933842892603, 0.2619518390512914, -0.26108391212374743, -0.4186239211750187, 0.0810571523388975, 0.557081507350812, -0.2500739236743774, -0.27498463250039545, 0.21328924244141306, -0.45812000768432576, 0.2211382048286153, -0.04480990246182146, 0.11959672042292294, 0.44901329736700896, -0.014833585960361105, -0.2472108106587124, 0.4547946061586418, 0.4291911411725047, -0.27275627810887165, -0.48721365061147254, -0.2916775604588018, -0.02164210414451112, -0.2592400690127112, -0.003120130659034419, 0.12435036689357853, -0.34124819035507226, -0.05565345446948283, -0.19627981133759334, -0.31219847327645517, -0.46684554784791094, 0.16944224136027244, -0.3478925883282593, -0.033378153762617276, 0.43842885487976035, 0.005991998550520067, 0.2968414621409103, 0.19390646026931072, -0.1803168538944646, -0.2879838808509254, 0.18019062278742573, -0.4809826600943286, 0.41789775566909754, -0.3749749745646066, -0.006762102304774493, 0.31406117519366483, 0.04453521414633776, 0.20086875406756405, 0.3700055522752086, 0.2424850941346206, -0.41215367543833586, 0.11120400176401109, 0.10136302411343312, 0.2755159775588023, -0.11613813348613937, -0.4606242927421721, -0.19856178842345434, 0.47696987569320787, 0.1349192480971378, 0.1621513487969147, -0.44129137137961066, -0.06506779370253576, 0.10128679825983916, 0.4073265573075285, 0.30227159054854763, 0.2049788659882415, -0.4405918206433339, 0.14975014611338267, 0.48906432368378233, -0.16585437839036427, -0.34514272533767537, 0.19656769724325604, -0.3027078257037517, 0.36961722115456225, -0.464979903729853, 0.4254330365373591, -0.24639786789397902, -0.3368188752730354, -0.13008100519249607, 0.3260664312487495, 0.256955418367851, 0.3084431992119742, 0.3142487210423769, -0.009678315480346733, -0.4171036506559688, -0.16271261398586156, -0.08431370096525613, 0.07886238484987092, 0.272763489707792, 0.4538608551595721, 0.3213990506317688, -0.36186660561473527], [-0.4489383966963576, -0.1241720242905396, 0.1913455576209141, 0.11093445552913876, -0.339272193148727, -0.18746147904187066, -0.4981644045473984, -0.4921122952545594, 0.13853150158006175, 0.14882111812608406, 0.39471703930353963, -0.4322882721209955, 0.4012691559735297, 0.00557756045865598, 0.2901474618719742, 0.09671210518602652, -0.4869393007599867, 0.16811430444716194, 0.2845338396196461, -0.25427527199509065, 0.36115188825127664, 0.3127336727719703, 0.015088867435929505, 0.09990033165248303, 0.02656148873312651, -0.4278863180099156, 0.18388957323553468, -0.2576283797106243, 0.3551036262860546, 0.35803668665247146, -0.16645311623864847, -0.06753558134637037, -0.21277279107350994, -0.31229438798217535, -0.2906840735036201, 0.08724295309576276, 0.22568152554978915, -0.3951525912951652, -0.4234155184903314, 0.4657427392136444, -0.2626834131739005, -0.13466822346202006, -0.03902721583574134, 0.48226212454282924, 0.40895291974911807, -0.04620683378728671, -0.35344344366985947, 0.36993667054790236, -0.13603035778706488, -0.12479822680711614, -0.11132153611187746, -0.4744718564811861, -0.011205589505938062, 0.00833325860640905, 0.12495786233792552, -0.12382642513333819, 0.3785557581152475, 0.39429419389959774, 0.15752323316942515, -0.30601959699691783, -9.633965170125484e-05, -0.41265556187495417, -0.004016947235104618, -0.12332194238616692, -0.028989319279793584, -0.079311248523798, -0.40771369227359056, 0.12111168798520691, -0.2497480015822854, -0.35408415330518656, 0.31322175987667394, -0.41876632237065897, -0.3278569862385494, 0.37817875741042595, 0.40697481027089527, 0.3722067938454124, 0.020028051846686736, 0.3629514785282171, 0.34730616401398934, 0.02625323688175092, 0.20081099864592866, 0.12231981037294362, 0.10695797346716344, 0.008818022244864103, 0.035444861086875015, 0.4995293232146074, -0.014603646323685065, 0.3479997920286423, 0.3290176491883366, -0.08147046167237146, -0.4616320458947385, 0.05775979854809611, 0.3727629429274636, 0.276174996928488, 0.008277600754211061, -0.2613215542019266, 0.13176597111493354, 0.07034655541468862, -0.22022198850926075, 0.4127105811658731, 0.42331678638851433, -0.46101577539710487, -0.3454749472464842, 0.2562526034940801, -0.22516761829464418, 0.47210470163787627, 0.1429014546927691, 0.35316652626729467, -0.31906712942924836, 0.39142499511498247, -0.04593462939351534, -0.16443444080995118, -0.18793726957537518, 0.22835121498251726, -0.3790328067259429, 0.18456486571126424, 0.4799887792550449, 0.14582314973473384, 0.21537722722840655, 0.4946324836230509, 0.45039199875035857, -0.15960652020406793, -0.3622970852545948, 0.17846406451150054, -0.07736483380188808, -0.1900844114085118, -0.15634870472955603, 0.15032417299788844], [0.29329087321766095, -0.31125041107118573, -0.24864418436980693, -0.48049600114663715, 0.3698696468999209, 0.14894799964219663, 0.4205405207345923, -0.4816723151751667, -0.15203236010744425, 0.2054138756864065, -0.192619677791338, -0.5340817911909626, 0.17324914449799586, -0.4795665255656179, 0.03703495244096086, 0.0566345744122512, 0.4480338461950596, 0.3647653952136966, 0.08724474805653654, -0.4132295089928375, 0.3097930871187587, -0.00523312987922909, 0.37026788789207293, 0.36769872707866486, -0.2835226820002526, 0.335805186638021, -0.19877224927623016, 0.33750245404070894, -0.3570839369790359, 0.2584478482881156, -0.06566336931209901, 0.43253307618457193, 0.41975506831768195, -0.41286373679533606, 0.3788030811864639, -0.43042030758188954, -0.1975778835543894, -0.49710108889891425, -0.11620384140679611, -0.012237342641323925, -0.37582434347581695, -0.17495177340117532, -0.3125738585339012, -0.5739522135377786, 0.16646740510346342, 0.06554147521863815, -0.3220923561473432, -0.01104826707103056, -0.40525518760554363, 0.18722654519377854, -0.4456841452366995, -0.13318757252866312, -0.11956410729355212, 0.4724110513197175, -0.23786696339854863, 0.09887571173250935, -0.016021478155609746, 0.14172844214920088, -0.32025498715909806, -0.30724412393703165, 0.1282446823622615, -0.5959906114470935, -0.5014534405535603, -0.0019023618882500434, -0.028001381995097812, -0.12575632762107375, -0.39174525670065047, 0.03390433200092584, 0.3464515899538024, -0.11544631881145397, -0.10105407098271334, 0.3890854520519314, 0.2699262738106376, -0.3689378230661823, -0.054124547291586854, 0.000540398316274045, -0.10593174501404669, 0.1629577114192725, 0.3614101106133237, -0.23475396073406093, -0.1552374289984914, 0.1346799305881473, 0.40221952217018303, -0.14004799227256848, 0.33599771839028547, 0.05636867649715471, -0.41192811168930676, -0.25247672372460467, -0.3711345753497287, 0.25473661127343106, -0.14588703073003223, 0.21577229466634051, -0.24624997630512843, 0.06360406337135781, 0.16361690153173666, -0.24939606744553688, -0.3707032963784665, 0.15664195241072607, -0.4137090578267528, 0.47447665029781366, 0.17089592064218118, 0.039869641154465695, -0.2140950685692943, 0.10447599689861546, 0.389925427075, -0.4758642167168824, 0.46434380859015906, 0.3290748118510601, -0.20511847753442156, 0.37376269379184207, 0.026620860155073832, -0.44330248050664817, 0.37683827441981005, 0.3862653402683328, -0.11084635022563367, 0.17143640954085487, -0.19869858857555475, -0.09908649027864591, -0.09227753710589871, -0.46915566503271494, -0.04088142164886933, -0.31425410660244235, -0.054482683684231224, 0.10037823461021138, -0.16927095223403335, 0.2663972840494177, 0.25679021233138927, 0.06719242690041276], [0.041506442578963125, -0.039172841366511134, -0.4935554962920276, 0.45431214532130443, 0.09039103691484479, -0.24944373158661656, 0.1033398969968162, 0.23221222089846713, 0.20955727989727368, 0.36733370722515907, 0.33941290853940465, -0.4479853000860466, -0.4344984724329483, -0.0718340152642529, -0.37677722801265234, 0.18560564466960597, 0.4737247470534372, 0.09844871353412112, 0.19092669787124453, -0.4686185931495603, -0.12038205770454508, -0.08394455227306186, -0.3229593895119899, 0.45954457464570975, 0.10895154976805072, -0.29538518114890716, 0.07133812562639084, 0.29977912427852277, -0.3695085617861677, -0.06088492103163615, -0.1280083945445405, 0.4212110148728002, -0.43419459623138745, -0.47872186414490214, 0.05075232193978271, 0.16224840437150037, 0.42984996154998967, -0.31345647128247417, -0.09013228885694614, 0.16718446279117596, -0.22095898119175672, 0.39453985104200295, -0.5847443590763988, 0.29882644796866115, -0.31029009211113634, -0.07364771391009567, 0.43920517492654826, -0.2064333292381229, -0.36267736706576226, -0.16619873387988385, 0.3955244608587037, 0.28513664341835515, 0.3478986530624252, -0.1101128588914002, 0.02433024626065462, -0.0001843211498500637, 0.11998559552795796, -0.06794966552498362, 0.10001121312811599, -0.21319513214224975, 0.09399772589770032, -0.3484523637113263, -0.08331231675136339, 0.22645851797786118, -0.08156994352867714, -0.3094835876379931, 0.3343453079527052, -0.26424637865424083, -0.2163814957775218, 0.15612081102466183, 0.3742472633047959, -0.08902288597472396, 0.43647561243611277, -0.420610407232144, -0.5413210986775624, -0.22475608954365592, 0.06477130408177594, -0.1974397927386882, -0.4362286256913681, -0.39391911177453015, -0.08551283371573451, -0.4016332629222918, -0.1863821062076699, -0.30353087227769676, 0.09251531632990878, -0.025417566009141027, 0.20885595687767997, -0.11094283918373911, 0.13079454981285632, -0.36048900337376794, -0.20319950082875526, -0.5799945994759305, 0.16263786889728893, -0.48994858477646547, 0.02260735890996091, -0.408891541496155, -0.13191467715569155, -0.2912915101141546, -0.11303558120198108, -0.11892479548530208, -0.341200036927259, -0.09341323943518019, -0.07717477855355204, -0.4613393209962223, -0.2878712376055572, 0.09025267609664536, -0.48712749614168027, -0.16757820837746817, 0.23284605039193532, 0.35046319013165983, -0.35621606704380865, -0.36762106091864755, 0.39801841434383134, -0.30548219747169064, -0.31281129722227435, -0.22594298292476137, -0.45396565535577493, -0.1837798926114495, -0.0168397156672359, -0.029127132713344883, -0.6038660037739451, 0.002534014329597585, -0.3102098979478076, 0.1990054614195832, 0.11222517833637016, 0.3922824841849357, -0.5127398778834963, -0.10739561311248606], [-0.4966899477167118, -0.189169453160453, 0.33501551834040644, 0.051151153479166975, -0.15388051694492294, 0.0012329096471335114, 0.3050042081686868, 0.2546264686509384, 0.2332096327401133, -0.19176455629972983, 0.034152011389445326, -0.4869116512774514, 0.25672019078774805, 0.11754453142838496, -0.43281269701597624, -0.4111729301628091, -0.039393603037655635, 0.08998621502286677, 0.10702057734888637, 0.15522557459838102, 0.058640351274368216, 0.3566031594006651, 0.39165778281906477, -0.3782406395079014, 0.32282730624780687, 0.2960876360585726, 0.15666616297671535, 0.3646485000562653, 0.23211170749259225, -0.3860083741753732, -0.009164549033074038, 0.37805498068141274, 0.2684645472772518, -0.05308323231720532, -0.0035191815331656892, -0.3689323525955132, -0.028296826653887743, 0.04189371245027548, -0.4915838146740006, -0.31677060281451525, -0.057086354508753774, 0.23965068684282284, 0.15034390395966638, 0.04133052864331697, 0.02764264922404151, -0.46710937157554533, -0.3049392048746394, 0.21937385093826217, 0.09860742542082968, 0.25885300090435487, 0.03028064024524432, -0.01746464144677541, -0.4107843576324046, 0.4638684951638377, -0.191130171132093, -0.2413708182156982, 0.18945746732738333, 0.2928898960635036, 0.3894615417885343, -0.40367994377928124, -0.42841837050729126, -0.1286362526293918, 0.4654147397433997, -0.2252324739370462, -0.46065522335262477, -0.4745788274824321, 0.40683353927898347, -0.14609992702475225, 0.04561099822523892, -0.2088333071030999, 0.11581440019876431, -0.38789230055093255, 0.1642021417388898, 0.4271495587308309, -0.3020191827668999, 0.33390497361134386, -0.4353555801654562, -0.16536222347996749, 0.15653560819852086, -0.10919355712515381, 0.013237383054428556, -0.2599909357399113, 0.1350076695400275, 0.18426484914290725, 0.17212464372016004, -0.10269036622809644, 0.20154073973999023, -0.3691335861410851, 0.47481982384145255, 0.014142832251711148, 0.28977006025554247, 0.5205827997263547, -0.45267364202804, 0.4439744496944211, -0.32903044122222286, 0.4873640625585795, 0.39432983670131394, -0.3503514619950586, 0.0011830216641442832, -0.011549820264340404, 0.3880685615769994, -0.4282051732056038, 0.45197899294592625, 0.003339363957987152, -0.27416352002144, -0.16641758309392668, 0.1090692997601422, -0.1454044364519143, -0.2651384364737442, -0.02258479660125991, 0.016708383546155905, -0.1924613062404445, -0.012645551405042523, 0.15214773424347755, -0.31506891515689933, 0.04470217029217403, 0.5079010980064407, -0.08843917405577997, 0.26833198264690894, 0.09619608617175467, 0.037075352942080746, -0.4168809708272971, -0.33112284353498755, -0.45811852686810206, 0.2414716064043346, -0.13234444520713898, 0.3684450975378523, -0.1567338453920956], [-0.45787534593991575, 0.37237673848182634, -0.30816220540315153, 0.31501270895113853, 0.14931464740414824, 0.3297735700947294, -0.3565742697969668, 0.4463384610435101, 0.22153430996148354, 0.15870848891340703, 0.03416566709054609, -0.4819189002264454, -0.32243453806691513, 0.18675307970438193, -0.3434392323333218, -0.2539646324343298, -0.1812265108409986, -0.30081704435425183, 0.2938935961948057, 0.09898031532490828, -0.4109729492917944, -0.018631931926837944, 0.30616073023509044, -0.35859420139545445, -0.3300228405697261, 0.12912027533473294, -0.20249860536388684, -0.5093909309581381, -0.34269376318310235, 0.015895377795372555, 0.1144209497823818, -0.07603163083329434, 0.09753334231700539, 0.1497590369693035, -0.1655613944736234, -0.04764726029950372, -0.20278675695802817, -0.13702246853048822, -0.027061933341292956, -0.44683954937938347, 0.24962323291519387, 0.3957655985697302, 0.0902300030169336, -0.05933731946962973, 0.006348797775330289, 0.28963546886036107, 0.41312580959436634, 0.0114033792486337, 0.24096774119399725, 0.09385872882668903, -0.3895962819832214, -0.5099655352933083, -0.10713854716401675, -0.1689979002712087, -0.02690724650500554, -0.29149708717415196, -0.13491249712740594, 0.09264287587856361, -0.362491039225699, 0.1782252322153008, 0.0034997420680983543, -0.18433635234687695, 0.2995867190403215, 0.10538337970813727, -0.14211349645102492, 0.43031586922123666, 0.20607826243152386, -0.16574930760716777, 0.2195857897292381, 0.3462549809877505, -0.3044862806795364, 0.2874752017537904, -0.45797854840494845, 0.14335146875780136, -0.1404651266483436, 0.25544107970115953, -0.439063616934137, 0.4297041304218886, -0.10860684806507633, -0.3563545499175967, -0.46415175249755036, -0.4484828128882186, 0.402648761044327, -0.3930211371966104, 0.0523526468847489, 0.183901302646733, -0.10335869044608946, -0.20938986084614786, -0.4721838521825782, 0.26090237596092825, -0.04879574756113935, 0.2621917563589559, 0.20633708329860706, 0.21743396405955728, 0.33242888817151117, -0.21971982957830474, -0.12885260857406605, 0.07267944833172067, 0.20943546627755652, -0.20481201648773925, -0.2455332603593294, 0.007086675316726134, 0.17215071634554932, -0.49647754860132687, 0.288165753175724, -0.0870079687174484, 0.1819692436212311, -0.4045619714730756, 0.39728568400877184, -0.3971958196871818, -0.22962343950934425, -0.3179293173399773, -0.21350854388045867, -0.4460325034848741, 0.348571833353095, 0.09267848943010192, 0.284742857972806, -0.34989948925831177, -0.20623219905671575, 0.4114875847827895, -0.31699292326777057, -0.23055587012224144, -0.20567290905773744, 0.07080084518690592, -0.417734650338377, 0.15356158280984447, 0.33067793928008327, -0.0993954280637655], [-0.09429449030040606, -0.3676250223255945, -0.2850466838998912, -0.19730306241805498, -0.26717833291974474, 0.29608598982234485, -0.2658454980633451, 0.19670420080073453, -0.04442980915283893, -0.44227679882973514, 0.16828669788533002, -0.49477183532621116, -0.12593052722687492, -0.47412797769844134, 0.431562247144458, -0.436586156682471, 0.38437071315078053, 0.3237154340577763, -0.17901331552879618, 0.13332929921894068, -0.003766983349567948, -0.48230785519936387, 0.05680711766547839, -0.2405162868358481, 0.013583274426816167, 0.3025563819853586, -0.3266626335676635, -0.42797140560373786, 0.026323909956265535, -0.07740578165980386, -0.3372833773199221, -0.009855441155285057, -0.2984389174014968, -0.022480945935264007, 0.17987870417637844, 0.04156233925084834, 0.37202228344155736, -0.11599650982136786, -0.3855007372170747, -0.10845643975268593, 0.39278293866508057, 0.4249759669631545, -0.33123853786796587, -0.5924273717568884, 0.03173267158859483, -0.5299016389602055, -0.01123098406370743, -0.09060798252262815, -0.1462658884086595, 0.31662415400958077, -0.46706759874871734, 0.16105134497258813, -0.03212166679501375, 0.35351091412177893, 0.029225902236944976, 0.13461680298033762, -0.40060630650250983, 0.1718589409508335, 0.1632006226278831, 0.12529818948289098, -0.3515714118057868, 0.018938347240121403, 0.3361679585672792, 0.3789320100561661, 0.0006143302140557958, 0.295514425060823, 0.22234730057052127, -0.3974364955069748, 0.02868635637707109, -0.2538049622235557, -0.10211354736980348, 0.3699468286509299, 0.022159632749786395, -0.36476070315096143, 0.27080592032812034, -0.33400179675726355, 0.3061051498749455, 0.3950676474236151, -0.16508863000753324, 0.01023279698709626, -0.37691828485622625, 0.01672977008933979, 0.11378268856320133, -0.11160631983638354, -0.4998128148594039, 0.4717476363163551, -0.015057804852009806, -0.2185638317571973, 0.15208149015447903, -0.15874477164059722, -0.2118123122294543, -0.204396712874304, -0.2091294847688862, 0.08859016706098109, 0.16447522458301767, 0.24138088534821486, -0.12605748045517476, -0.4954445552185449, -0.05080950983687673, -0.4627264173109777, -0.04225305281475446, -0.004190921747103279, 0.18458904676924245, 0.011510099611143255, -0.2992357699779271, 0.05684781468898738, -0.0009490961602996192, -0.19476585231048532, -0.5372904994968305, 0.27664764725196334, -0.47942180342628715, -0.22553426430677032, 0.06462140012040618, -0.4667158466806184, -0.4006397341529889, 0.21387450035194353, -0.4440836418024511, 0.17770396354574503, 0.12071795186746657, -0.13817383240838627, -0.4834647406253729, -0.039683796593299625, 0.3698543890652141, 0.169873920755853, -0.18462142315407595, -0.07158129101947598, -0.17779114329029233, 0.2132054394983171], [-0.37762321217233336, 0.3761719619688473, -0.3397033947545485, -0.0864270858969302, -0.429996054714143, -0.13049515178239446, 0.2505540633161309, 0.247473602532233, -0.25187278703320265, 0.3511805832219632, -0.47280956144845776, 0.13136776141504697, 0.16636957633224972, -0.3794563573477721, 0.2670891046644307, 0.20350072682902604, -0.191676921726587, -0.460705100629957, 0.2589462120778731, -0.14358950437679824, 0.08967588371883863, 0.030477211114481376, -0.11112454635223909, -0.33150312941637533, -0.30167646114840485, -0.12594886129356553, -0.3394924109139901, -0.12272794471324258, -0.4797182940362584, -0.2627064243535105, 0.12953480411305351, 0.3615758917311622, -0.2081396855371453, -0.08616702922378329, 0.4697271338281719, -0.05045881631574228, 0.1314398542739739, -0.26237907857843656, -0.09925674284923698, -0.3578293690983098, -0.24677126828737417, 0.13278390891481026, -0.32484045565169617, 0.18206032762082083, -0.48964928878495867, -0.07529351684904191, 0.15109243815992435, 0.0764040696581024, 0.051040534873481015, 0.3471407476850616, 0.26851482056407916, 0.20228839849364808, -0.3987335781293902, 0.013786633528887603, 0.016222602321998694, 0.03719624791450324, 0.08508681496600115, 0.023170645291463485, 0.2703915220903024, 0.2308565366564019, -0.47648833856039746, -0.0015457941457507954, -0.2799459994539414, -0.20221684786053126, 0.12744905900101142, -0.5010257601459129, 0.4613735734454692, 0.03270525388788466, -0.35541912074356435, 0.16375270231960484, -0.229706801311175, 0.4257781933911045, 0.3616784687910993, -0.2313693644744205, -0.37298639770754305, -0.37053414673079926, -0.47788867612977964, -0.2267373764498842, 0.4024236227950206, 0.1365378189178061, 0.1558158723277582, -0.2922010760951468, -0.4327854846580625, -0.0052368523969104535, -0.480649117614501, 0.4728836446811904, 0.3639534785390897, -0.23438560901178815, 0.25122283384316013, -0.24579390500942344, -0.22545777928267047, 0.18627204178690124, 0.47419818116984797, 0.047829210838408055, 0.3384153523682501, 0.4468321310728429, -0.348683653480878, -0.27796831173447045, -0.3103064980028633, -0.1959107715911765, -0.17066952467390628, 0.23257369142483658, -0.01894645769056026, -0.3516971069038989, 0.20302565582713797, -0.33475596393904333, -0.46827126090985877, 0.287589272455546, 0.2544678366327738, -0.37481481412067336, -0.36571376365298247, 0.2785456760733919, 0.1105111738973455, 0.21577228718147606, 0.07042287559999086, 0.4616650040236664, 0.09526868473689991, -0.30471563416275305, -0.3952243011293356, 0.021221074272701743, 0.07544598471150026, -0.042570926576622044, 0.3170133312974114, 0.1031525074291596, 0.0725869174437113, -0.3936896192478025, 0.29343923057588067, -0.33608310205578085], [-0.041050918097073376, 0.05732600770573435, -0.2736469591868489, -0.20635532356884995, -0.31585788159008377, -0.4132645911927615, 0.15952402645019903, -0.055219775047278985, 0.1669669707686753, 0.04770878343691546, 0.40594444172991573, 0.2662700336964918, -0.15137043715126505, -0.42438454195005687, 0.08358644210393092, 0.4800909647312985, 0.1578371979123966, -0.27591168698634916, -0.43630425285169633, -0.23584374636027272, 0.051077796245071326, -0.20413341484489317, -0.3548615490002614, 0.036603967878165965, 0.47090854663820453, -0.3787933707618555, 0.21384782824542783, 0.3875221998771519, -0.09439424283701218, -0.10674886829865687, 0.27704130822078266, 0.29848670306381414, -0.10365322157171183, 0.16326583216397653, 0.1278933813300476, 0.3696042679480419, 0.37409183394741286, -0.06977071016475044, -0.0714559309799508, 0.3669120602437805, -0.26904492003120506, 0.06018005678407846, -0.29862452496581615, -0.10429506403137975, -0.006158392246113104, -0.41896862841478916, -0.3920567817221961, 0.23095246457504015, -0.3795096764042567, -0.5071037078758024, 0.15165821333239532, 0.24656849882094092, -0.45516500542818816, -0.47016305577952155, 0.16682681133882735, 0.3917620741103662, 0.12138901844684935, 0.16518774231669886, 0.2952559803531791, 0.12418867314910889, -0.4844110951554825, 0.4656179826484985, 0.300019257764419, -0.13293727131965916, 0.4088149467442667, 0.11532933547840622, -0.3793159499776761, -0.31333589335097445, 0.2070140432105637, -0.09805306752365446, -0.3666698279147883, -0.251249971467919, -0.06707270969673072, -0.20356319630338018, 0.393946973002262, 0.42564765286021006, 0.3054378611632431, 0.22178005246551238, -0.34133798090179085, -0.4222554579346638, -0.21928756374087804, 0.24543649631108155, 